{"version":"0.5.4","metadata":{"date":{"year":2025,"month":5,"day":18,"hour":7,"minute":31,"second":50},"loudness":-13.567986488342285,"gain":0.6831038979499896,"name":"APP-6505Plus-MidForward-Gain-1","modeled_by":"ampspedalspickups","gear_type":"amp","gear_make":"tz-make","gear_model":"tz-model","tone_type":"overdrive","input_level_dbu":null,"output_level_dbu":null,"training":{"settings":{"ignore_checks":false},"data":{"latency":{"manual":null,"calibration":{"algorithm_version":1,"delays":[0],"safety_factor":1,"recommended":-1,"warnings":{"matches_lookahead":false,"disagreement_too_high":false}}},"checks":{"version":3,"passed":true}},"validation_esr":0.001945140011013375}},"architecture":"WaveNet","config":{"layers":[{"input_size":1,"condition_size":1,"head_size":8,"channels":16,"kernel_size":3,"dilations":[1,2,4,8,16,32,64,128,256,512],"activation":"Tanh","gated":false,"head_bias":false},{"input_size":16,"condition_size":1,"head_size":1,"channels":8,"kernel_size":3,"dilations":[1,2,4,8,16,32,64,128,256,512],"activation":"Tanh","gated":false,"head_bias":true}],"head":null,"head_scale":0.02},"weights":[-0.09789398312568665,0.5299584269523621,-0.6164247393608093,-0.7344980835914612,-0.30668437480926514,-0.0056281303986907005,0.007266318891197443,0.825749933719635,-0.06797755509614944,0.24261116981506348,-0.21292151510715485,-0.03886105492711067,-0.7939566373825073,-0.611704409122467,-0.5934076309204102,-0.06272675842046738,-0.10493945330381393,0.13433361053466797,-0.09553912281990051,-0.12887631356716156,0.15798141062259674,0.022029517218470573,0.034793611615896225,0.0022454350255429745,0.07848543673753738,0.07124973088502884,0.010704215615987778,-0.04692591354250908,-0.043775882571935654,-0.1590082198381424,0.03197205439209938,0.17014291882514954,0.12653502821922302,0.083831787109375,0.026891930028796196,-0.14077450335025787,0.0769985169172287,0.06092006340622902,0.17424462735652924,-0.029366808012127876,0.10885071754455566,-0.1425914317369461,0.16656090319156647,-0.189419224858284,0.009535026736557484,-0.173299178481102,0.15095463395118713,-0.018923651427030563,0.044811416417360306,0.05241691693663597,-0.011550330556929111,0.22415003180503845,0.11943924427032471,-0.08913137763738632,0.1970248520374298,-0.028643619269132614,-0.08779527246952057,-0.016563856974244118,-0.025555234402418137,-0.17538486421108246,0.17490708827972412,0.04450523480772972,-0.011785716749727726,0.04312359541654587,0.09756767004728317,0.014192655682563782,-0.354400098323822,0.336822509765625,0.3716834783554077,0.16376356780529022,-0.4125003516674042,-0.32839435338974,0.04629354923963547,-0.1911044716835022,-0.16204044222831726,0.10636930167675018,-0.2700316905975342,-0.3908396065235138,0.012062638066709042,0.14678248763084412,0.03494153544306755,0.08364339172840118,-0.06921210139989853,-0.18233361840248108,0.03960414230823517,0.2809813320636749,0.25733643770217896,-0.056799039244651794,-0.20966723561286926,-0.31757494807243347,0.05482713133096695,0.3524687886238098,0.35506466031074524,0.047000981867313385,-0.42727723717689514,-0.34714728593826294,0.07185972481966019,-0.24286362528800964,-0.3466159403324127,-0.09773971140384674,-0.16576780378818512,-0.17909425497055054,-0.07266467064619064,-0.3354639708995819,-0.4132896959781647,-0.010352582670748234,-0.417677104473114,-0.39532527327537537,-0.014830496162176132,0.04235602170228958,0.020303159952163696,-0.1612638235092163,-0.08544081449508667,0.19110730290412903,-0.3532015085220337,-0.2643214762210846,0.227326899766922,0.02669743448495865,0.15720078349113464,-0.22691580653190613,0.052026476711034775,0.14567452669143677,-0.34083783626556396,0.05654141306877136,-0.004607231821864843,-0.34063830971717834,-0.027704991400241852,-0.07292540371417999,0.10031365603208542,-0.26436367630958557,0.13412947952747345,-0.025053424760699272,-0.05207711458206177,-0.14751486480236053,0.37024661898612976,-0.012778316624462605,0.18277497589588165,-0.2182755321264267,0.0639357641339302,-0.05411829426884651,0.3792421817779541,0.07316239923238754,0.2877073585987091,-0.24905501306056976,-0.11951394379138947,0.08207236230373383,-0.11328268051147461,-0.017051586881279945,0.0656428262591362,-0.37151458859443665,-0.1363607794046402,0.016581080853939056,-0.291259765625,0.07926782965660095,0.22467449307441711,-0.4100690186023712,0.08809175342321396,-0.034340739250183105,0.07801183313131332,-0.462598592042923,-0.1205366998910904,0.20375904440879822,0.21673670411109924,-0.13969716429710388,0.05871589109301567,0.06906110793352127,-0.042126212269067764,-0.01900262013077736,-0.20330916345119476,0.0011103125289082527,0.034447427839040756,-0.1455511748790741,0.13953864574432373,-0.04289552569389343,-0.23189327120780945,0.051000747829675674,0.10605048388242722,0.019514095038175583,0.16593195497989655,-0.2204442322254181,0.013900307938456535,-0.0486646443605423,0.18959133327007294,0.1236097514629364,0.08319614082574844,-0.0337047278881073,-0.10825417935848236,-0.042934928089380264,-0.02927379310131073,0.1797584891319275,0.12575724720954895,0.013405900448560715,-0.17537271976470947,-0.004049679264426231,-0.22691267728805542,-0.13523830473423004,-0.0634956806898117,-0.02664938010275364,-0.16598573327064514,0.011411036364734173,-0.07741392403841019,0.004374255426228046,-0.08753562718629837,-0.18958216905593872,-0.1567114293575287,-0.012585896998643875,-0.020305050536990166,0.5176842212677002,-0.049919355660676956,-0.08567530661821365,-0.24586281180381775,0.042536165565252304,0.09803658723831177,-0.11749831587076187,-0.06977146863937378,-0.0589611753821373,-0.029865005984902382,-0.1394568383693695,0.04325249046087265,-0.026654047891497612,-0.0674421563744545,0.07508188486099243,0.14185434579849243,-0.021610641852021217,-0.08927130699157715,-0.09626957029104233,-0.1727936714887619,-0.20727580785751343,0.0785379409790039,0.045416004955768585,0.07556256651878357,0.031107895076274872,-0.07500380277633667,0.01527385599911213,0.14093735814094543,-0.02854122221469879,0.13947759568691254,-0.18793226778507233,-0.1306529939174652,-0.041202571243047714,0.12787866592407227,0.03387521207332611,-0.13926824927330017,0.06403084844350815,0.009385509416460991,-0.2137375921010971,0.18931114673614502,-0.1797165423631668,-0.06817895919084549,0.06634709239006042,-0.14834856986999512,-0.06042110174894333,0.2052880972623825,0.026305243372917175,-0.018546482548117638,0.017494572326540947,-0.08006689697504044,0.2055986225605011,0.02636905573308468,-0.022369513288140297,-0.15659590065479279,-0.04877953231334686,-0.004253891762346029,0.1740294247865677,0.1829659640789032,-0.13117852807044983,0.025334008038043976,0.17230848968029022,0.026619689539074898,0.09132717549800873,0.05324840918183327,-0.06823652982711792,-0.12222078442573547,-0.049655571579933167,-0.0007627350278198719,0.03256853297352791,0.3711196184158325,-0.010107477195560932,-0.08373020589351654,-0.0910358726978302,-0.04905873164534569,-0.005098558496683836,0.052173271775245667,0.20164284110069275,-0.03816482052206993,-0.01404711976647377,-0.11963314563035965,0.1146298423409462,0.10666884481906891,-0.051070429384708405,-0.0033854476641863585,0.17982546985149384,-0.036453258246183395,0.06013274937868118,0.09874172508716583,-0.17489653825759888,0.16091381013393402,0.020220814272761345,-0.019121885299682617,0.0281581562012434,0.06667735427618027,0.10596629977226257,-0.03133392333984375,-0.12280908226966858,0.032292935997247696,-0.13627992570400238,-0.020001081749796867,-0.01821794919669628,0.13793426752090454,-0.1384008675813675,-0.04096037894487381,-0.10063115507364273,0.17623518407344818,0.023397408425807953,-0.02790348045527935,0.21920834481716156,-0.0020442018285393715,-0.07933752983808517,0.18526135385036469,-0.0047307987697422504,0.024213882163167,-0.06846344470977783,-0.005881365388631821,0.02317196875810623,0.2203947752714157,0.05025317147374153,0.16203925013542175,-0.10990136116743088,0.15386554598808289,-0.13526551425457,0.015314786694943905,-0.2050108164548874,0.21733272075653076,-0.04033009335398674,-0.01716153509914875,-0.0144692687317729,0.24178430438041687,0.21637563407421112,0.056350186467170715,0.22252388298511505,0.04663743078708649,-0.12859994173049927,0.2457295060157776,0.16090860962867737,-0.1660134196281433,0.2554135322570801,0.15085910260677338,0.003001247299835086,0.039936844259500504,-0.0651533380150795,-0.11900030821561813,-0.047317784279584885,-0.032658688724040985,0.14811687171459198,0.0446748323738575,0.0499689057469368,-0.043849483132362366,0.19504059851169586,-0.08462871611118317,0.030868221074342728,-0.21734021604061127,-0.12044032663106918,-0.11359275132417679,-0.007723858579993248,0.10456826537847519,0.14014852046966553,-0.0013131080195307732,-0.18584133684635162,-0.06912490725517273,0.020810576155781746,-0.06660248339176178,0.04396901652216911,-0.19960574805736542,-0.08670633286237717,-0.13823027908802032,0.04296492412686348,0.13842470943927765,0.10190188884735107,-0.02933569997549057,0.08615927398204803,0.1257351040840149,0.0815509483218193,0.08408889174461365,0.129472017288208,-0.06880737841129303,0.15788191556930542,0.06366893649101257,-0.030793022364377975,-0.03243762627243996,0.06900488585233688,-0.1039644256234169,-0.015558574348688126,-0.08056749403476715,-0.20242054760456085,-0.10288991779088974,0.08853857219219208,-0.031135423108935356,-0.1537221223115921,-0.21107031404972076,-0.019067959859967232,0.09556388109922409,0.04482528939843178,0.00028652066248469055,0.14547967910766602,0.0986194908618927,0.017788095399737358,0.11258590221405029,0.05829441919922829,-0.1861240118741989,0.0667356625199318,-0.12088850885629654,-0.14438630640506744,0.10598751157522202,-0.03610458970069885,-0.22097869217395782,-0.12458036094903946,-0.10197070986032486,-0.10426118969917297,0.059690870344638824,0.1539800465106964,-0.028992943465709686,-0.06960377842187881,0.05149191617965698,0.19667033851146698,0.06680396944284439,-0.15817932784557343,-0.1233288049697876,-0.0829666256904602,-0.011605418287217617,0.17923273146152496,-0.12328381836414337,0.008009884506464005,-0.0011773306177929044,0.017387190833687782,-0.10239378362894058,-0.1383991837501526,0.009766570292413235,-0.1591036021709442,-0.05870240926742554,-0.1482679396867752,-0.18270012736320496,-0.2657705843448639,-0.04365725442767143,0.059884101152420044,-0.26104360818862915,0.1704808920621872,0.00937690306454897,-0.08923627436161041,0.2853119671344757,-0.16778011620044708,0.19536250829696655,0.17431455850601196,0.08726532012224197,0.05708641931414604,-0.20029768347740173,0.16864873468875885,0.012889483012259007,-0.023251764476299286,-0.04980328306555748,-0.02066226676106453,-0.22999000549316406,0.0020632180385291576,0.043984755873680115,-0.06789351254701614,0.04404156655073166,0.06742551922798157,0.04079790040850639,-0.043911948800086975,0.027078703045845032,0.05858208239078522,0.007386385463178158,0.13240870833396912,-0.04023812711238861,0.01633838377892971,0.04772602394223213,-0.04629230499267578,-0.17251095175743103,0.0573100708425045,-0.1734343320131302,0.11571502685546875,-0.09809260815382004,-0.12476730346679688,-0.03732369840145111,0.11113931238651276,-0.1165253221988678,0.16109630465507507,0.09606306254863739,-0.014381082728505135,0.05787412077188492,-0.03345799073576927,-0.1451663374900818,0.07265622913837433,0.07402396947145462,-0.0006662971572950482,0.08306369930505753,-0.013349574990570545,-0.12989242374897003,0.06503809243440628,0.3595767915248871,0.10032664984464645,-0.005149242468178272,0.07681198418140411,0.08784744888544083,-0.05535820499062538,0.1300451159477234,-0.041895542293787,-0.08297838270664215,0.08381146192550659,-0.01464872807264328,-0.07704038172960281,-0.01929977536201477,0.11635565757751465,0.1009148433804512,0.05835204944014549,0.11815275996923447,-0.020548520609736443,-0.0025306555908173323,-0.016535243019461632,0.2148219347000122,-0.034503012895584106,0.06227201223373413,-0.18200457096099854,0.0515734925866127,-0.12785673141479492,0.05122491344809532,-0.08687914162874222,0.14690417051315308,-0.1681760996580124,0.02202417328953743,-0.0068110572174191475,0.06750141829252243,0.20338182151317596,-0.08476292341947556,-0.2502896785736084,-0.09395509213209152,0.029285727068781853,-0.16521675884723663,-0.07279667258262634,-0.021975988522171974,-0.10336264967918396,-0.05227202549576759,-0.0015126782236620784,0.09637712687253952,0.09651686251163483,0.039677128195762634,0.2777157425880432,0.05718241631984711,-0.13751906156539917,-0.17947261035442352,0.2128175050020218,0.01745005138218403,-0.004578275606036186,0.06896872073411942,0.0502510666847229,0.14676250517368317,-0.0988072082400322,0.10572690516710281,0.07700292766094208,-0.011687561869621277,-0.026169342920184135,-0.10251708328723907,-0.011512734927237034,-0.013064512982964516,0.05028006061911583,-0.1796203851699829,-0.010860888287425041,-0.15403425693511963,0.060060515999794006,0.23467563092708588,0.171572744846344,0.021553341299295425,-0.05366283655166626,-0.15553703904151917,0.0054004560224711895,0.12883584201335907,0.2319006472826004,-0.1373773217201233,-0.025545628741383553,0.13012804090976715,0.062179192900657654,0.1064814031124115,0.007952052168548107,-0.21368828415870667,0.17623424530029297,0.10793274641036987,-0.16356903314590454,0.17905746400356293,0.17368647456169128,0.03245116397738457,0.20730888843536377,0.1109926849603653,0.23103681206703186,0.09972167015075684,0.18112321197986603,0.03822379186749458,0.16530829668045044,-0.19829508662223816,0.08248217403888702,0.026398133486509323,0.19518688321113586,-0.07899753004312515,-0.15705636143684387,-0.02422105148434639,0.1883450150489807,-0.16177763044834137,0.011155557818710804,0.13078953325748444,-0.010448487475514412,-0.1033836379647255,-0.10360514372587204,-0.02047034166753292,-0.005267113447189331,0.2539912462234497,0.041084952652454376,-0.023675454780459404,0.07536458969116211,-0.04539811238646507,0.07768488675355911,0.15978634357452393,0.11374816298484802,-0.14724978804588318,0.07775136828422546,-0.060614004731178284,-0.059236593544483185,0.014064599759876728,-0.1720299869775772,0.21463364362716675,0.04578709602355957,-0.2384352684020996,0.0605749674141407,0.13843511044979095,-0.062041595578193665,0.12282634526491165,0.06698422133922577,-0.05764850229024887,0.0385502353310585,-0.012751145288348198,-0.049075834453105927,-0.011291971430182457,0.12777569890022278,0.03874719887971878,-0.08896725624799728,-0.09254351258277893,0.10738510638475418,-0.12584933638572693,0.2019464373588562,-0.17849241197109222,0.1532641500234604,-0.17677772045135498,-0.1318897008895874,0.11264368891716003,-0.12232455611228943,0.02819906361401081,-0.06221599504351616,-0.18064874410629272,0.029012205079197884,-0.019541403278708458,0.12607282400131226,-0.07938965409994125,0.149985671043396,-0.0537043958902359,0.06303630024194717,0.06894354522228241,-0.05126029625535011,-0.07427722215652466,0.17365747690200806,-0.0883650854229927,0.19157353043556213,-0.09310257434844971,0.1652136594057083,-0.22013211250305176,0.026177003979682922,-0.08639255166053772,-0.04075545445084572,0.09018824994564056,0.045588936656713486,-0.11572585254907608,0.03068498894572258,0.03964821994304657,-0.13128602504730225,0.16448424756526947,-0.1551990658044815,-0.11489715427160263,0.027855737134814262,-0.002862440887838602,0.03423565998673439,-0.18403753638267517,-0.280911386013031,-0.02127470262348652,-0.040305912494659424,-0.07456930726766586,-0.06865227222442627,0.2203981578350067,0.05659495294094086,-0.01774432882666588,-0.268524706363678,0.17949053645133972,-0.12733253836631775,-0.09347964078187943,0.10680563747882843,-0.08358291536569595,-0.06706047058105469,-0.032713305205106735,-0.046174582093954086,-0.07163110375404358,-0.08022120594978333,0.08378398418426514,0.08459928631782532,0.07376770675182343,0.11470887809991837,0.1074569895863533,-0.15662570297718048,-0.1425798237323761,-0.25449955463409424,0.2291470170021057,-0.018272772431373596,0.12572833895683289,-0.05715593695640564,0.07986663281917572,0.0021718202624469995,0.20750416815280914,-0.09365741163492203,-0.11026103794574738,0.010448114015161991,-0.10582347214221954,-0.09349218755960464,0.22017955780029297,-0.1307775229215622,-0.03300674259662628,0.017670180648565292,-0.048172615468502045,-0.009359526447951794,0.057185251265764236,0.054754868149757385,-0.06994970142841339,-0.018426962196826935,0.040760625153779984,-0.024985622614622116,0.2843669056892395,-0.0198189876973629,-0.22274000942707062,0.011429068632423878,0.030031820759177208,0.0631316751241684,0.05463498830795288,0.038628656417131424,0.20236055552959442,-0.08421280235052109,-0.10317663848400116,0.05357237905263901,-0.1353103518486023,0.001715751364827156,0.0623553991317749,0.15161263942718506,-0.03168157488107681,0.1306689828634262,-0.030238665640354156,0.19792936742305756,-0.16209255158901215,-0.08582936227321625,-0.0751722902059555,0.18370775878429413,-0.1453179568052292,0.22385385632514954,-0.04223623871803284,-0.07617723196744919,-0.12619979679584503,0.22052906453609467,-0.1294475942850113,-0.11657863110303879,0.15066760778427124,-0.10939836502075195,-0.008840316906571388,0.17699606716632843,0.07409336417913437,-0.18224410712718964,0.2446589320898056,-0.10226146876811981,0.05375274643301964,-0.035112395882606506,-0.14044681191444397,0.14766262471675873,0.0722704604268074,0.20502769947052002,-0.12003365159034729,-0.6801539063453674,-0.49104198813438416,-0.13798494637012482,0.067340187728405,-0.03441827371716499,-0.013584908097982407,-0.01850169524550438,0.1766459047794342,0.09374244511127472,0.018301477655768394,-0.08617669343948364,-0.03165594860911369,-0.11582274734973907,-0.046800725162029266,0.00859904009848833,0.3532630503177643,-0.411099374294281,0.8089284896850586,-0.6211795806884766,-0.08696344494819641,0.7732519507408142,0.8706969618797302,-0.4581435024738312,0.3084980845451355,0.10546014457941055,-0.48673680424690247,-0.26557692885398865,0.22346563637256622,-0.6335207223892212,0.08228336274623871,0.44318488240242004,-0.04766875132918358,0.3530721068382263,0.07621725648641586,0.1426803469657898,0.21629734337329865,-0.08934547752141953,0.1712019294500351,-0.1001143530011177,-0.05583169683814049,-0.02660784311592579,0.07550545781850815,-0.038389239460229874,-0.09785018116235733,-0.11653894931077957,0.14273670315742493,-0.060511115938425064,-0.058510441333055496,-0.30373045802116394,-0.3306731879711151,-0.03333636000752449,0.014710549265146255,0.0052835578098893166,-0.08791742473840714,0.1517343670129776,0.004509888123720884,0.2240634262561798,-0.10341247916221619,-0.04493038356304169,0.301338255405426,0.07818886637687683,0.10416306555271149,0.23047691583633423,0.16720935702323914,0.13545097410678864,0.07648638635873795,0.19350896775722504,0.1614968329668045,-0.06401193886995316,0.1779244989156723,-0.05801866948604584,0.12454476952552795,-0.07258038967847824,0.3725830912590027,-0.39801251888275146,0.15046343207359314,0.1202857568860054,0.23275184631347656,-0.2062297761440277,0.14310207962989807,-0.10810928046703339,-0.10694177448749542,-0.19770768284797668,0.02835811860859394,-0.026792803779244423,-0.0026083735283464193,0.07831574231386185,-0.3309013247489929,-0.0024135143030434847,0.05608023330569267,-0.00656178267672658,0.16074027121067047,0.19303801655769348,-0.022743863984942436,-0.14946378767490387,-0.10597292333841324,-0.24356801807880402,-0.16616809368133545,0.1524934023618698,0.1559903770685196,0.06269521266222,0.09563371539115906,-0.0881417915225029,-0.023295309394598007,0.21765059232711792,-0.0592530332505703,0.10126993805170059,0.1631324738264084,0.27356353402137756,-0.0007569753797724843,-0.08655740320682526,-0.34983542561531067,0.027127400040626526,-0.038945622742176056,-0.021719645708799362,0.19373415410518646,0.21108010411262512,-0.1064775288105011,0.1851724088191986,0.08839166164398193,0.13755333423614502,-0.30597829818725586,0.03572314232587814,0.10767469555139542,0.12247902899980545,-0.047044698148965836,0.23256874084472656,0.0295014176517725,0.3276294469833374,0.2513134181499481,0.23508967459201813,-0.38777056336402893,-0.306887149810791,-0.03371931612491608,-0.027374068275094032,-0.036920078098773956,-0.5252304673194885,-0.14002163708209991,0.44052407145500183,-0.23072205483913422,-0.5076413154602051,-0.18533329665660858,-0.06553389877080917,0.19049744307994843,0.14345215260982513,0.3639700710773468,-0.08164050430059433,-0.27949047088623047,0.11624328047037125,0.29813817143440247,0.008595021441578865,0.2094755917787552,-0.2739785611629486,0.2149583250284195,-0.25819557905197144,0.10787447541952133,-0.1313939094543457,-0.1127714216709137,0.08961054682731628,-0.010866136290133,0.027165301144123077,-0.15912994742393494,-0.2282097488641739,0.20736905932426453,-0.1030057892203331,0.021205054596066475,0.0665278434753418,-0.27514520287513733,-0.24785234034061432,0.19426390528678894,0.08817538619041443,-0.08651459217071533,-0.0889657661318779,0.13875135779380798,-0.31457802653312683,-0.30710533261299133,0.015682993456721306,0.2436932623386383,-0.4108963906764984,-0.19504064321517944,0.3072083592414856,-0.0873604267835617,-0.12882918119430542,0.09340385347604752,0.5369572043418884,-0.32220545411109924,0.2651432752609253,0.32614076137542725,0.3211352229118347,-0.37043800950050354,0.3897213935852051,0.16193056106567383,0.33104339241981506,-0.05897701904177666,0.11670376360416412,-0.303617388010025,0.07499080151319504,0.10165904462337494,-0.005759714171290398,0.0372939370572567,-0.06893478333950043,-0.17261295020580292,0.021369071677327156,-0.09368667006492615,0.06662071496248245,-0.03692147135734558,0.36805638670921326,-0.07126408815383911,0.04682260751724243,0.30973532795906067,-0.05434046685695648,0.024795765057206154,-0.08817125111818314,-0.19626709818840027,0.003406311385333538,-0.09510127454996109,-0.0993099957704544,-0.06839114427566528,-0.015137450769543648,-0.08789563924074173,0.02581183984875679,-0.2863355576992035,0.047557514160871506,0.10539031028747559,-0.03299741819500923,0.07179398834705353,-0.0060900854878127575,0.10584008693695068,0.08269735425710678,0.12727506458759308,0.07746830582618713,0.3530430197715759,-0.04590988531708717,-0.10297682136297226,-0.05993478372693062,0.1592698097229004,-0.24095195531845093,-0.08698370307683945,0.10619551688432693,0.12584084272384644,-0.3339264690876007,-0.26171785593032837,0.10313958674669266,-0.2425847202539444,0.15271997451782227,0.1870822161436081,0.013250911608338356,0.017327526584267616,-0.368815541267395,0.15828479826450348,-0.0804835706949234,-0.17091993987560272,-0.14951255917549133,-0.16126494109630585,0.10687308013439178,-0.1769079566001892,0.2862018346786499,-0.0686245858669281,-0.0981687679886818,0.12103338539600372,-0.02534322813153267,0.0873493179678917,0.04397045448422432,-0.3592829704284668,0.29349005222320557,-0.10271149128675461,0.03792840987443924,0.10798811167478561,0.37963101267814636,-0.21658483147621155,-0.07778938114643097,0.030462566763162613,0.3398038148880005,0.2818855941295624,-0.10833494365215302,0.05675122141838074,0.12200288474559784,-0.007302058860659599,0.24170354008674622,-0.23835265636444092,0.11391857266426086,-0.029040560126304626,-0.12625417113304138,0.27954715490341187,0.3639954626560211,0.17689542472362518,-0.0587853342294693,0.3071401119232178,-0.4074869155883789,0.28078368306159973,-0.3645749092102051,-0.6149630546569824,0.06968894600868225,0.20115767419338226,0.001066149096004665,0.08885499835014343,0.10221818834543228,0.11586997658014297,0.0990389883518219,0.1585405170917511,-0.3341125249862671,0.16265498101711273,0.009297666139900684,0.08685605973005295,-0.1365664005279541,-0.07443799078464508,0.1297241896390915,-0.013566925190389156,-0.08421240001916885,-0.09350656718015671,0.1544179767370224,-0.09421863406896591,-0.26696261763572693,0.1609123796224594,-0.03104809671640396,-0.11780106276273727,0.15083947777748108,0.03720112517476082,0.4465465545654297,-0.3052148222923279,0.1428246647119522,-0.0732610821723938,-0.39978277683258057,0.16787002980709076,0.14367075264453888,-0.3449500799179077,-0.14872707426548004,-0.13597933948040009,0.35607266426086426,-0.18273131549358368,0.045712511986494064,-0.006790955550968647,0.22756658494472504,-0.24729298055171967,-0.14103016257286072,-0.0678907185792923,-0.40403875708580017,-0.1692611575126648,0.21564611792564392,-0.20793700218200684,0.14701150357723236,-0.06067002937197685,-0.044791243970394135,0.08554887771606445,-0.09422968327999115,-0.3465770483016968,0.4301801323890686,0.057786911725997925,0.15240389108657837,-0.11083701997995377,-0.08496354520320892,0.16303591430187225,0.21304500102996826,0.00614897720515728,-0.4393199384212494,-0.20442090928554535,0.2023027241230011,-0.23287487030029297,-0.053045306354761124,0.11978455632925034,-0.12837807834148407,0.12950050830841064,-0.0012584736105054617,0.03595743328332901,-0.04810333624482155,0.3411931097507477,-0.10028036683797836,-0.11010000854730606,-0.15261593461036682,0.8360720276832581,0.01967776007950306,0.059286829084157944,0.4984579384326935,0.1291268765926361,0.010044075548648834,-0.41501328349113464,-0.1281948685646057,-0.0099490350112319,0.059525422751903534,0.16268183290958405,-0.3881295621395111,0.2802174687385559,0.1744227409362793,-0.07330911606550217,0.3183891773223877,0.20021064579486847,0.06555719673633575,-0.41519516706466675,-0.2663765549659729,-0.04145270586013794,-0.04338305816054344,-0.16800907254219055,0.17813067138195038,-0.2693523168563843,-0.023963673040270805,-0.00629970571026206,0.23755979537963867,0.6144459843635559,-0.06069015711545944,-0.10273454338312149,-0.12423376739025116,-0.03222076594829559,0.20053650438785553,0.16821148991584778,-0.021971197798848152,0.021758178249001503,0.19693411886692047,-0.13575896620750427,0.19326631724834442,0.11105349659919739,-0.10959132760763168,0.20309321582317352,0.02579091489315033,0.07924582809209824,0.06174295023083687,0.0788971409201622,0.24351844191551208,-0.158227801322937,-0.33335596323013306,-0.2318369597196579,-0.14926975965499878,-0.18231426179409027,0.2560368776321411,0.1223163977265358,0.010228576138615608,-0.11822205036878586,-0.08889149129390717,0.029443254694342613,-0.20525892078876495,-0.1475668102502823,-0.1973075568675995,-0.30379289388656616,0.02509405091404915,-0.13999976217746735,0.008233818225562572,0.11827238649129868,0.05384853109717369,-0.12725457549095154,0.02970375120639801,-0.016282575204968452,0.02614094875752926,-0.09382989257574081,0.13826560974121094,-0.22373737394809723,-0.09831323474645615,0.059369608759880066,0.15503601729869843,-0.2982533276081085,-0.1904444694519043,0.07010835409164429,0.23534993827342987,0.11465838551521301,-0.010101688094437122,0.12114288657903671,-0.03402167558670044,-0.2352500855922699,0.200308158993721,0.1518346071243286,-0.08565530180931091,0.10082504153251648,-0.001440838328562677,-0.14543618261814117,-0.06303087621927261,-0.01559405867010355,0.03666384518146515,-0.4239291846752167,0.13510262966156006,0.05904088541865349,-0.42186322808265686,-0.13155794143676758,0.09249775111675262,0.19092170894145966,0.01760059781372547,0.0091710751876235,0.2952248156070709,-0.28913241624832153,0.11754085123538971,0.1447094827890396,0.03682803362607956,0.09861630201339722,-0.1494898647069931,-0.042253803461790085,0.3018149137496948,0.1893305778503418,0.18602032959461212,-0.17069609463214874,0.18526361882686615,0.001065905555151403,-0.16717326641082764,0.2930046319961548,0.05956864356994629,0.1214427798986435,-0.057429660111665726,-0.06832201033830643,0.14608234167099,-0.21536685526371002,0.013122699223458767,-0.03212818130850792,0.09383918344974518,-0.01008148305118084,0.15427593886852264,-0.06466524302959442,0.21890537440776825,-0.3035631775856018,0.05933128669857979,0.17631874978542328,-0.06240313500165939,0.1175282746553421,-0.039811793714761734,-0.13751548528671265,-0.29860472679138184,0.07706984877586365,0.04387066885828972,0.2066807597875595,0.11094024777412415,0.1781458556652069,-0.11605518311262131,0.06833081692457199,0.28059178590774536,0.22870615124702454,0.14593923091888428,-0.3088754117488861,-0.2901918888092041,-0.26534250378608704,0.000010160602869291324,0.13918930292129517,-0.10616295039653778,-0.015507873147726059,0.05985526740550995,0.12727168202400208,-0.0647776797413826,-0.10027860850095749,-0.11091447621583939,-0.053798165172338486,0.1140713319182396,0.015977738425135612,0.049725912511348724,0.10592907667160034,-0.08242692053318024,-0.542832612991333,-0.004600860644131899,0.00966899935156107,-0.08887842297554016,0.09969969093799591,-0.44094476103782654,-0.04895789921283722,-0.27062252163887024,0.4357221722602844,0.0395011305809021,0.19929257035255432,-0.17416776716709137,0.01814214326441288,-0.2613135874271393,0.10310933738946915,0.008610464632511139,-0.20243053138256073,0.25354841351509094,-0.04668845236301422,-0.045723043382167816,-0.24617281556129456,0.001032250002026558,0.0376390665769577,-0.2473122775554657,0.005305733531713486,0.17750826478004456,-0.394957959651947,0.15546877682209015,0.3295212984085083,0.0417066365480423,-0.11965592205524445,-0.1675153225660324,-0.042881425470113754,0.07405050098896027,-0.1704423576593399,0.054896049201488495,0.11773054301738739,0.1280527412891388,-0.10603555291891098,0.2620864510536194,0.05873323976993561,0.2650452256202698,0.01191516499966383,-0.03316115587949753,0.18001249432563782,0.1639588177204132,-0.13104058802127838,0.258601576089859,-0.1332342028617859,-0.05504906177520752,-0.44326290488243103,-0.01928209513425827,0.01747911050915718,0.10650656372308731,-0.0633106678724289,-0.19923174381256104,0.014457245357334614,0.08772724866867065,0.16060218214988708,0.08563925325870514,0.029517514631152153,0.11197786778211594,-0.16449181735515594,-0.12333136051893234,-0.218225359916687,-0.06833552569150925,-0.10775064677000046,0.05863916873931885,0.08298704773187637,0.3828933835029602,0.421965092420578,0.089493028819561,-0.2872494161128998,-0.14211098849773407,0.12201493233442307,0.04124411195516586,0.11923891305923462,-0.04577464982867241,-0.1960459202528,-0.2767617106437683,-0.27696576714515686,0.3066589832305908,-0.12316183000802994,-0.09351559728384018,-0.45330339670181274,0.06731098890304565,0.049404919147491455,-0.03839845582842827,0.35114672780036926,0.1980176419019699,0.1261923462152481,0.1669144630432129,0.11929919570684433,-0.27978262305259705,-0.26777777075767517,-0.2040523886680603,-0.08663911372423172,-0.29807183146476746,-0.2662104368209839,-0.12047384679317474,-0.2164585441350937,-0.12779191136360168,0.1457061618566513,0.20509596168994904,0.23831011354923248,-0.18289150297641754,-0.035070616751909256,-0.16467823088169098,0.5270482301712036,-0.16575375199317932,-0.17612293362617493,-0.26173877716064453,-0.12055647373199463,-0.21004235744476318,-0.2881585359573364,-0.09103908389806747,0.02663370780646801,-0.0945575162768364,-0.20428447425365448,-0.3213614225387573,0.3868441581726074,-0.002267340896651149,-0.10395918786525726,-0.024640383198857307,0.037185296416282654,-0.24197162687778473,0.15750640630722046,0.1611129194498062,0.4608514904975891,-0.2871977686882019,-0.06612982600927353,-0.08936399221420288,0.2603127956390381,-0.30673298239707947,-0.238150492310524,-0.07571028918027878,0.0633048266172409,0.11594141274690628,0.05021405965089798,-0.19604119658470154,-0.0414380207657814,-0.062104105949401855,0.1740245670080185,0.0778748020529747,0.048810526728630066,-0.15767937898635864,-0.17379984259605408,-0.14307452738285065,0.17276419699192047,0.0051541756838560104,-0.18645872175693512,-0.023664958775043488,0.1425701379776001,0.13374264538288116,0.10625553876161575,-0.011481954716145992,-0.05908007174730301,0.09030517190694809,0.06573015451431274,0.10975354164838791,0.13269948959350586,0.25540149211883545,0.18673601746559143,-0.08088342100381851,0.07984329760074615,0.01883367821574211,-0.006195751950144768,-0.12667976319789886,-0.3172043263912201,-0.03657933324575424,-0.075289286673069,0.03391176462173462,0.02448832429945469,-0.0987543836236,0.1239824965596199,-0.23249664902687073,-0.0002325888053746894,0.16218876838684082,-0.16638734936714172,-0.2371593862771988,-0.20341287553310394,-0.07721024006605148,-0.11094285547733307,0.21355223655700684,-0.07768087089061737,0.06024247407913208,0.005928417202085257,0.0006142486236058176,-0.05686692148447037,-0.21735049784183502,-0.2242579460144043,-0.25957322120666504,0.03028268925845623,-0.05341660603880882,-0.1115214005112648,-0.05943626910448074,-0.11247683316469193,-0.16302451491355896,-0.12711340188980103,-0.045100465416908264,0.32606059312820435,0.1967107206583023,-0.3677138388156891,-0.08644215017557144,-0.2767865061759949,0.2309952825307846,0.4436023235321045,0.07157417386770248,0.44943058490753174,0.34403765201568604,0.03413953259587288,-0.09500306844711304,-0.15430809557437897,0.1156093031167984,0.19725418090820312,-0.06884502619504929,0.01362675242125988,-0.19159795343875885,-0.09668510407209396,0.27974000573158264,-0.08428996801376343,0.1629718542098999,-0.21148952841758728,-0.24717365205287933,-0.21195857226848602,0.4234890043735504,0.281814843416214,0.04649236053228378,-0.27851104736328125,0.012598865665495396,-0.21072816848754883,0.1762198954820633,0.04727589711546898,-0.04782642051577568,-0.2269497513771057,0.11799413710832596,0.19595187902450562,-0.0773816928267479,-0.20942935347557068,-0.09449774771928787,-0.13213002681732178,-0.1859627217054367,-0.08683692663908005,0.05266415700316429,0.10102549940347672,0.4559370279312134,-0.13903406262397766,-0.43015578389167786,-0.543027400970459,0.04152519628405571,0.2652810513973236,0.36183255910873413,0.1418161392211914,-0.3436335623264313,-0.20067429542541504,-0.16695433855056763,-0.4623287618160248,-0.3918205201625824,-0.26752331852912903,-0.05952057987451553,0.10612161457538605,0.15288463234901428,0.04681815952062607,0.33522671461105347,0.22050480544567108,0.013660429045557976,0.1157161295413971,0.013000673614442348,0.005201883614063263,0.03209669515490532,0.1336236149072647,-0.023754334077239037,-0.044735949486494064,0.11267688870429993,-0.17446139454841614,0.20809520781040192,0.506011426448822,0.24915868043899536,0.2264779806137085,-0.49037110805511475,0.11943800747394562,0.13787297904491425,0.18655769526958466,-0.15918047726154327,-0.3293420970439911,0.12384329736232758,0.0891614630818367,0.12610283493995667,0.018714895471930504,0.08678020536899567,0.000027506739570526406,-0.14659741520881653,0.16360625624656677,0.08842375129461288,-0.22435182332992554,-0.0900745615363121,-0.23858512938022614,0.0029828837141394615,0.11633100360631943,0.32390546798706055,0.047192078083753586,0.06754214316606522,0.05549275130033493,0.01586020365357399,0.05473417043685913,0.0018272645538672805,-0.02941223606467247,-0.25564834475517273,0.05734388530254364,0.03593704104423523,-0.03665848448872566,0.09650935232639313,0.07926689088344574,0.14119653403759003,0.23190505802631378,-0.0161200650036335,0.14719533920288086,-0.13755027949810028,-0.21883437037467957,-0.5239986181259155,-0.38328856229782104,0.03037125989794731,-0.2865830659866333,-0.36666688323020935,0.11756885051727295,-0.005139351822435856,0.23931479454040527,-0.032014235854148865,-0.00823774840682745,-0.040205683559179306,0.1796940714120865,0.09929101914167404,0.0741528868675232,0.05367946997284889,0.023788196966052055,-0.19590593874454498,-0.10933858901262283,-0.07359898835420609,0.10578469932079315,-0.01651403307914734,0.07256169617176056,0.18176977336406708,-0.2597742974758148,0.11285962909460068,0.06671147793531418,0.3046606779098511,-0.005538091063499451,0.23101924359798431,-0.04210878908634186,-0.1595117449760437,0.08578284084796906,-0.012499170377850533,-0.01673797331750393,-0.08243724703788757,0.019919531419873238,0.19904324412345886,-0.029767420142889023,0.2227182686328888,-0.2422577142715454,-0.3819538950920105,-0.20328167080879211,0.14148804545402527,-0.1133970096707344,-0.10931623727083206,-0.33327949047088623,0.2259940505027771,0.2842968702316284,0.35154879093170166,0.1028098464012146,-0.06383463740348816,0.013581709936261177,-0.17785857617855072,-0.03524332866072655,0.09275070577859879,-0.21995414793491364,-0.3202187716960907,-0.13698551058769226,-0.15552270412445068,0.18553611636161804,-0.27780649065971375,-0.15911372005939484,0.09252935647964478,-0.05353168025612831,0.1707044541835785,0.1633453220129013,0.23518764972686768,0.266521155834198,-0.1441178321838379,-0.18779703974723816,-0.10452786087989807,0.08183977752923965,0.2304709553718567,0.14961817860603333,0.023746708407998085,-0.03520279750227928,-0.03976910561323166,0.030504828318953514,-0.165591299533844,-0.09338543564081192,0.040772102773189545,-0.0638311505317688,0.012240393087267876,0.0588458813726902,0.0655982494354248,0.09396970272064209,-0.05826636031270027,-0.049630649387836456,-0.009589936584234238,-0.15140892565250397,0.09981530904769897,0.07038275897502899,0.021346166729927063,-0.05520174279808998,-0.026118390262126923,0.08471853286027908,0.11358886957168579,-0.19819338619709015,0.1407337188720703,-0.007797234691679478,-0.09302545338869095,-0.3106783330440521,-0.30325981974601746,-0.09805645048618317,0.008658366277813911,-0.03908004239201546,0.0096841249614954,-0.0037472164258360863,0.20858155190944672,0.07795140147209167,-0.21182875335216522,-0.26454001665115356,-0.1722448617219925,-0.14884908497333527,-0.19671761989593506,-0.1667724847793579,0.088313028216362,-0.21905115246772766,-0.12005208432674408,-0.10272809118032455,-0.10508037358522415,0.30310627818107605,0.030866354703903198,-0.1750372350215912,0.06479775905609131,0.07473728060722351,-0.15011344850063324,-0.11750573664903641,-0.06033756956458092,-0.127524733543396,0.08795393258333206,-0.0645369440317154,0.10974667966365814,0.050453923642635345,-0.06016130745410919,0.3740580081939697,-0.09364557266235352,-0.3005037009716034,0.005853122100234032,-0.09865894168615341,-0.06171249970793724,-0.06932999193668365,-0.047053735703229904,0.010503492318093777,-0.1360403299331665,0.041728291660547256,0.07575085759162903,0.01699424535036087,0.16705401241779327,-0.4376617968082428,0.19590184092521667,-0.25100865960121155,-0.13375601172447205,0.14147643744945526,0.06843432784080505,0.034422047436237335,0.21751178801059723,0.05299897491931915,-0.09217271953821182,-0.41271278262138367,0.07616721093654633,-0.1486874520778656,-0.18625856935977936,-0.28462886810302734,-0.10666291415691376,-0.11311675608158112,-0.037195343524217606,-0.09730581939220428,0.0523606613278389,0.19520799815654755,0.020869096741080284,-0.07946208119392395,-0.029536228626966476,-0.002818590961396694,-0.0672711655497551,0.04401293024420738,-0.06231876462697983,-0.08914419263601303,0.07910940796136856,-0.027347063645720482,-0.08022694289684296,-0.08581524342298508,0.012253678403794765,0.05028586834669113,-0.09915291517972946,-0.4197489619255066,0.08672945201396942,-0.1569601446390152,-0.08133231103420258,-0.1569143384695053,-0.07419338822364807,-0.11047665774822235,-0.15501394867897034,0.3616092801094055,0.5242224931716919,0.07358511537313461,0.2066371887922287,-0.26892781257629395,-0.2017979472875595,-0.2489852011203766,0.013844598084688187,-0.0306650809943676,-0.11314283311367035,0.026080001145601273,0.12012994289398193,0.16520407795906067,-0.17826437950134277,-0.13109660148620605,-0.07212553173303604,0.05650274455547333,-0.0761272981762886,0.06206640973687172,0.22823604941368103,0.11311419308185577,-0.17572566866874695,-0.03030751459300518,0.10604426264762878,-0.14719131588935852,0.3651602566242218,0.2912643551826477,0.3860859274864197,-0.15408281981945038,-0.3327641189098358,0.5014253854751587,0.039456162601709366,0.19015751779079437,0.06493400037288666,0.24525055289268494,-0.09365681558847427,-0.37731626629829407,0.11828091740608215,0.5659142136573792,-0.44433528184890747,0.4611068665981293,-0.6917860507965088,-0.12205182015895844,-0.4346545934677124,0.9014936685562134,-0.8287964463233948,-0.6433460712432861,-1.135256052017212,0.049509141594171524,-0.6949132084846497,0.44985052943229675,-0.6556017994880676,-0.17885401844978333,-0.16696175932884216,0.1322660595178604,0.2315123975276947,0.2974008023738861,-0.011550769209861755,-0.3709295988082886,-0.29564687609672546,-0.03642631694674492,-0.1651594489812851,-0.025095654651522636,-0.030862966552376747,0.13103364408016205,0.08411317318677902,-0.1256415843963623,0.039423685520887375,0.1098845899105072,-0.10440781712532043,-0.03636092320084572,-0.11637093871831894,-0.26746228337287903,0.23149248957633972,0.061476629227399826,-0.11157667636871338,0.14281019568443298,-0.03419600799679756,0.05222116410732269,0.20752015709877014,-0.035315025597810745,0.10714118182659149,0.288319855928421,0.20644798874855042,-0.019432367756962776,-0.029607100412249565,-0.08586589246988297,0.0477324053645134,-0.08213973045349121,0.2771915793418884,-0.0029971878975629807,0.2651863694190979,-0.03242970257997513,0.11220014095306396,-0.36736637353897095,-0.3299024701118469,0.03277505189180374,0.1515934318304062,0.2613579332828522,-0.006171880289912224,0.08392634987831116,0.2079736739397049,-0.33335092663764954,-0.41350236535072327,-0.2507728636264801,-0.00324147823266685,-0.3508264124393463,0.2225642055273056,-0.13729745149612427,-0.029688511043787003,0.33669525384902954,0.17676199972629547,0.3624434173107147,-0.22950954735279083,-0.2285676747560501,0.06645951420068741,0.24929001927375793,-0.10558193922042847,-0.3608766198158264,-0.12806665897369385,0.05183163657784462,-0.11156582832336426,0.19842539727687836,0.36046719551086426,-0.09623731672763824,0.03175603598356247,0.014838400296866894,0.5663959383964539,-0.04248423129320145,-0.18456560373306274,-0.12289150059223175,-0.2938375771045685,-0.15620224177837372,0.08190053701400757,-0.5018696188926697,-0.14456112682819366,-0.11981537938117981,-0.015842538326978683,0.10357309877872467,-0.11461184173822403,0.008163083344697952,0.34609097242355347,-0.04781445860862732,0.12280337512493134,-0.2657662332057953,-0.04547915235161781,0.3093000650405884,0.20355157554149628,0.453140527009964,-0.29354408383369446,0.31731319427490234,-0.12966972589492798,0.08126579970121384,0.6279690861701965,-0.08754408359527588,-0.34069764614105225,0.2689562439918518,0.10136018693447113,-0.4896751940250397,0.005595524795353413,0.08248049020767212,-0.003247909713536501,0.049055904150009155,0.26588940620422363,0.17045241594314575,-0.06889531761407852,0.20139653980731964,0.22099699079990387,0.08906049281358719,-0.04487087205052376,-0.11053278297185898,-0.4232247769832611,0.2222810536623001,0.10453217476606369,-0.6106811165809631,-0.055764928460121155,-0.16001152992248535,0.19501104950904846,0.3182092607021332,0.31108808517456055,-0.16036248207092285,0.1545056402683258,-0.17370960116386414,-0.07940023392438889,-0.23502154648303986,-0.2876133322715759,0.2312035858631134,-0.16042807698249817,-0.019401704892516136,0.21834541857242584,0.15265244245529175,0.03242694213986397,-0.21963432431221008,0.3751649260520935,-0.019935697317123413,0.2917167842388153,-0.3634434938430786,0.06365227699279785,-0.07994576543569565,0.048331525176763535,0.1830960214138031,-0.3657727837562561,0.047858551144599915,-0.14690354466438293,0.08675345778465271,-0.3219718337059021,0.33916062116622925,0.4120381772518158,0.06070210412144661,-0.012470102868974209,0.06640355288982391,-0.16717775166034698,-0.0491679422557354,-0.13156050443649292,-0.05530635267496109,0.24058622121810913,0.04600585624575615,0.0272955484688282,0.19689247012138367,-0.09960615634918213,0.16353538632392883,0.324910968542099,-0.25660237669944763,0.15527541935443878,-0.036383386701345444,0.11444864422082901,0.09165297448635101,-0.08625879883766174,0.1182730421423912,0.31295326352119446,-0.15940602123737335,-0.1909915804862976,-0.2263510525226593,-0.20707815885543823,0.009955625981092453,0.15990421175956726,-0.19636847078800201,0.14282746613025665,0.23790280520915985,-0.36566755175590515,0.015001166611909866,-0.21659082174301147,0.06125457212328911,0.15899206697940826,-0.09365814179182053,-0.17464786767959595,-0.21452946960926056,0.21062372624874115,0.02997472882270813,-0.1689108908176422,0.027785051614046097,0.2794320285320282,-0.2677247226238251,0.16934822499752045,-0.17879658937454224,-0.04660986736416817,0.07803287357091904,-0.1367088258266449,0.09888587146997452,-0.08767063915729523,0.3379019796848297,-0.11627934128046036,-0.12876005470752716,0.32144179940223694,-0.32247281074523926,0.3279605209827423,0.20283107459545135,0.019286194816231728,0.07295622676610947,0.450578898191452,0.03495055064558983,-0.15335728228092194,0.1334656924009323,0.20277197659015656,0.19858908653259277,0.028184520080685616,-0.20718595385551453,0.07794433832168579,0.17549502849578857,0.035210512578487396,-0.21789142489433289,-0.1782807856798172,0.275272935628891,0.1404392272233963,-0.1188993975520134,0.09485864639282227,0.02977124974131584,0.25738218426704407,-0.3926906883716583,0.130970761179924,0.1676914095878601,0.1045503243803978,-0.0851532369852066,-0.3359713554382324,-0.2643623352050781,0.0022776182740926743,-0.1675046980381012,-0.05356559529900551,-0.1871039718389511,-0.014249279163777828,0.354051798582077,-0.3320331275463104,0.2621065080165863,0.0517575740814209,-0.24399349093437195,0.29354527592658997,-0.18764203786849976,-0.049814630299806595,0.06743444502353668,-0.2358267903327942,-0.09971988201141357,-0.02508431486785412,-0.43220752477645874,0.0804504007101059,-0.004211533814668655,0.18551261723041534,0.03237210214138031,0.3448673188686371,-0.04666147753596306,-0.10367903113365173,0.0405774787068367,-0.5951182246208191,-0.14040859043598175,-0.1108403429389,0.0859643816947937,-0.06890968978404999,-0.14086998999118805,-0.08792213350534439,-0.11710323393344879,-0.01544987317174673,0.0030754778999835253,0.05072982236742973,0.0819530263543129,0.1103619709610939,-0.13686169683933258,-0.11821223795413971,-0.20314693450927734,-0.21408945322036743,-0.21947231888771057,-0.15031076967716217,0.27691128849983215,0.11547262221574783,-0.21792803704738617,-0.0388498492538929,-0.022348789498209953,-0.012245500460267067,0.04307157173752785,-0.17155347764492035,-0.5722966194152832,0.2739940583705902,0.17241936922073364,0.10930266976356506,0.09383586794137955,0.06284743547439575,-0.28937551379203796,0.012077854946255684,-0.12939399480819702,-0.09402140974998474,-0.006162846926599741,-0.07416235655546188,0.04649663716554642,0.09998078644275665,0.09427566081285477,-0.2807025909423828,-0.02516520395874977,-0.21170203387737274,-0.43267184495925903,-0.03648536652326584,-0.08511452376842499,0.1611548662185669,-0.2078913450241089,-0.14011746644973755,-0.1567322313785553,-0.23108825087547302,0.09784109890460968,0.0817500427365303,0.39983004331588745,-0.0020144430454820395,0.22535806894302368,0.4228162467479706,0.4456291198730469,-0.2329007089138031,-0.2115602195262909,-0.25947973132133484,-0.022497355937957764,-0.15041595697402954,-0.2502763867378235,0.1479700356721878,0.07980746030807495,-0.5021752119064331,0.1155322715640068,-0.07561122626066208,-0.03746211156249046,-0.08421172201633453,-0.11209039390087128,-0.13450321555137634,0.1909443885087967,-0.27189579606056213,-0.5279967188835144,0.07970248907804489,0.034495387226343155,0.10544630140066147,0.3198077976703644,0.11394453048706055,-0.25193843245506287,-0.15064319968223572,-0.25845474004745483,-0.1424255073070526,0.2706744074821472,0.22657184302806854,-0.020162494853138924,0.13376037776470184,0.0918608233332634,-0.21113795042037964,0.11648760735988617,-0.024165969341993332,-0.4174606502056122,-0.1667918562889099,-0.2302747517824173,0.22762978076934814,-0.020030036568641663,0.13058343529701233,-0.0469694659113884,0.113335520029068,-0.08325041830539703,-0.32071030139923096,0.2064516246318817,-0.026249971240758896,0.17889463901519775,-0.18357397615909576,-0.3973040282726288,0.0876089334487915,0.0647834986448288,-0.33245810866355896,-0.054463110864162445,-0.12310105562210083,0.05172120779752731,-0.29416170716285706,0.13980764150619507,0.17132732272148132,-0.037818629294633865,-0.30169153213500977,0.3452235460281372,-0.009229070506989956,0.15787279605865479,-0.30804285407066345,-0.07493913173675537,-0.10608846694231033,0.19981786608695984,-0.03981880098581314,0.06676693260669708,0.1523582488298416,-0.14388912916183472,-0.18568024039268494,-0.2093277871608734,0.264068067073822,0.3008146584033966,-0.09354272484779358,0.08734525740146637,0.13190826773643494,-0.13310123980045319,-0.07248470187187195,0.3683680593967438,-0.3211672604084015,-0.13390061259269714,-0.31728485226631165,-0.12848712503910065,0.07397229224443436,-0.20748065412044525,-0.09063787758350372,0.3251250684261322,-0.03170695900917053,0.2345200479030609,-0.1861768215894699,0.14050813019275665,0.12632672488689423,-0.39753982424736023,0.22794227302074432,-0.2024775743484497,0.06988105177879333,0.42897942662239075,-0.03659128025174141,0.15636898577213287,-0.12755228579044342,0.1056215688586235,-0.0359029583632946,-0.04343707486987114,0.2556688189506531,-0.36668476462364197,-0.1970444917678833,0.3677825629711151,0.10925496369600296,0.3428860008716583,-0.3087429106235504,0.12872783839702606,-0.15025566518306732,-0.21696914732456207,0.1411709189414978,0.13719278573989868,0.19245284795761108,-0.09385444968938828,0.1080111488699913,-0.2194303572177887,-0.0013964242534711957,0.1357252299785614,-0.1335851550102234,-0.11105187982320786,0.2840338945388794,0.08237037062644958,-0.053735338151454926,0.2212616503238678,-0.2720574736595154,0.04767610877752304,-0.048391103744506836,-0.17909878492355347,0.17835040390491486,0.13719487190246582,-0.23861061036586761,-0.1645316481590271,-0.15428444743156433,0.039670199155807495,0.12208756804466248,-0.1454034149646759,0.09570178389549255,0.12370529025793076,0.13676634430885315,0.22043873369693756,-0.1968606412410736,-0.307493656873703,0.05036281421780586,-0.15331637859344482,0.19749683141708374,-0.08559425920248032,0.047277551144361496,-0.10500983893871307,-0.14924293756484985,0.32499730587005615,0.08301780372858047,-0.33356380462646484,0.17509214580059052,-0.10956791043281555,-0.04227357730269432,0.010625769384205341,0.13841935992240906,0.09378139674663544,-0.13946862518787384,-0.1893232762813568,-0.09022242575883865,0.10062745213508606,0.09880098700523376,0.1172942966222763,-0.22168417274951935,-0.1991223841905594,0.1197625920176506,0.018266038969159126,-0.1844627559185028,-0.1278870403766632,0.22214491665363312,-0.20648130774497986,0.11253007501363754,0.11614111065864563,0.09933194518089294,-0.07636939734220505,-0.22983087599277496,0.0948045626282692,-0.37200576066970825,0.18568634986877441,0.08636832237243652,0.30001598596572876,-0.18174131214618683,-0.13626547157764435,-0.2879036068916321,-0.34777119755744934,-0.2755122780799866,-0.09114174544811249,0.1754414290189743,0.22062423825263977,0.1263117790222168,0.21602916717529297,0.01597212441265583,0.45817410945892334,-0.07525817304849625,-0.0811714455485344,0.2708928883075714,-0.11652465909719467,0.013636801391839981,0.21902398765087128,0.15830497443675995,0.24888646602630615,-0.028943629935383797,0.16245333850383759,-0.04188733175396919,-0.046485885977745056,0.21679754555225372,0.18617871403694153,0.06699981540441513,0.007387745194137096,-0.0713241845369339,0.06912323832511902,0.10858204960823059,0.03385698422789574,-0.31959882378578186,-0.23237450420856476,0.010902522131800652,0.19325651228427887,-0.13295729458332062,0.06822335720062256,-0.4446921646595001,0.03867029398679733,0.1820167899131775,-0.18751168251037598,0.09788119047880173,0.13147303462028503,-0.12828198075294495,-0.041959188878536224,-0.0549890510737896,-0.07129453122615814,0.13062453269958496,0.03317640721797943,-0.2089831680059433,0.025365853682160378,-0.07149317115545273,0.5051101446151733,0.01226199883967638,-0.02898411639034748,0.11593261361122131,0.17240729928016663,-0.11793189495801926,-0.0735858678817749,-0.11195628345012665,-0.05544978752732277,-0.17058154940605164,0.003629011567682028,0.21923203766345978,-0.23336206376552582,-0.14300096035003662,-0.11567101627588272,0.11154190450906754,0.0975562036037445,0.004896256141364574,0.17837560176849365,-0.23560823500156403,-0.19427815079689026,-0.0801825150847435,-0.03807973861694336,-0.11716584116220474,0.0739990621805191,-0.17985154688358307,-0.09766591340303421,-0.07065489888191223,0.1408466398715973,-0.13282275199890137,-0.10389115661382675,0.12552182376384735,-0.25810492038726807,0.09863361716270447,0.1071457713842392,0.21772406995296478,-0.05162950977683067,-0.12077372521162033,-0.007662932388484478,0.24506840109825134,-0.2284834235906601,-0.08611588180065155,-0.13640300929546356,0.32392019033432007,0.05176017805933952,-0.01768730767071247,0.0035305675119161606,-0.37973904609680176,-0.1875234842300415,-0.0857962891459465,-0.25581738352775574,-0.25980398058891296,-0.17569155991077423,0.22328932583332062,0.058870427310466766,-0.27495503425598145,0.19516520202159882,-0.24837113916873932,0.1250760853290558,0.03657000884413719,0.22558072209358215,-0.09096813201904297,0.04788118600845337,-0.10154697299003601,-0.3114888668060303,-0.19508343935012817,0.5139864087104797,-0.005343709606677294,0.3812920153141022,-0.2861690819263458,-0.07318096607923508,-0.03779133781790733,-0.010045214556157589,-0.2270258069038391,0.11862588673830032,-0.08636107295751572,0.1467953473329544,0.021571898832917213,-0.4208776652812958,0.026201149448752403,0.27710646390914917,-0.30221033096313477,-0.17358095943927765,-0.4220806062221527,0.07895656675100327,0.09477191418409348,0.08725384622812271,0.11133024096488953,-0.02896851859986782,-0.13386639952659607,-0.06098047271370888,0.08183092623949051,-0.1312287151813507,0.22194045782089233,0.187277153134346,0.05067715048789978,0.3038424253463745,0.04154938459396362,0.15766023099422455,0.16054344177246094,0.06796661764383316,0.08491513133049011,0.03685496374964714,0.03168468549847603,-0.01611136458814144,0.07441545277833939,0.43721115589141846,0.1336517035961151,-0.20822995901107788,0.10208603739738464,0.012384440749883652,0.3064395487308502,-0.10013173520565033,0.14489752054214478,0.02315201424062252,-0.3802688419818878,-0.07447295635938644,0.1014658734202385,0.0746975913643837,0.12229283154010773,0.05762966349720955,-0.07405465841293335,-0.35127267241477966,-0.07416374236345291,0.021100811660289764,-0.18366996943950653,-0.2098243534564972,0.46612221002578735,-0.10257066786289215,0.5291500687599182,-0.11467716842889786,0.26410016417503357,0.6241519451141357,-0.1400899589061737,-0.18168160319328308,-0.9397028684616089,0.19185909628868103,0.1606902927160263,0.6895960569381714,-0.0696335956454277,-0.006934622768312693,0.04957981035113335,-0.014867467805743217,0.006907029077410698,-0.18112996220588684,-0.08854509145021439,0.03924963250756264,0.16007432341575623,-0.04908594489097595,0.2027634084224701,0.22517113387584686,0.02629455365240574,-0.12855632603168488,-0.03519604727625847,-0.30766817927360535,-0.017727477476000786,-0.3015027344226837,-0.11293460428714752,0.03341653570532799,-0.2646563947200775,-0.11436550319194794,0.15492157638072968,-0.1758807748556137,0.22267308831214905,-0.03527473658323288,0.201827734708786,-0.00006207700062077492,-0.063899926841259,0.07808200269937515,-0.10412528365850449,-0.16363467276096344,0.1297006905078888,-0.0054324837401509285,-0.12470553815364838,0.17841464281082153,-0.12088476866483688,-0.2871878147125244,0.5102550983428955,-0.11497015506029129,0.14853332936763763,-0.12138117849826813,0.07839854806661606,-0.17574062943458557,0.14689193665981293,0.07597880065441132,0.19128860533237457,0.04502003639936447,0.12993134558200836,0.11185760051012039,-0.009260410442948341,-0.04107627272605896,-0.22192171216011047,0.012471855618059635,0.1538504958152771,0.319103866815567,-0.14357267320156097,0.08105523884296417,0.09629111737012863,0.12102165073156357,-0.14781206846237183,0.2062840312719345,0.11661803722381592,-0.23012679815292358,0.03523019701242447,0.29366540908813477,0.004059317987412214,0.0839930921792984,0.12932786345481873,-0.03690866753458977,-0.17348340153694153,0.0559251569211483,0.15093527734279633,0.3277776837348938,0.03915835916996002,0.019537387415766716,-0.18564702570438385,-0.1704775094985962,0.09672699123620987,0.18196633458137512,-0.07770828902721405,-0.09877212345600128,0.32084402441978455,-0.18009795248508453,-0.14845260977745056,0.13682720065116882,-0.01239557471126318,-0.29372379183769226,-0.22811636328697205,-0.12669917941093445,0.04358057677745819,-0.1478273719549179,0.2664150595664978,0.0551748163998127,0.09682107716798782,-0.29801666736602783,0.2899070680141449,0.2642143964767456,-0.14935407042503357,0.19731412827968597,-0.2103693187236786,0.017677471041679382,-0.03318748250603676,0.08947137743234634,-0.200447678565979,0.16210074722766876,0.06097735837101936,-0.04335232079029083,-0.03505389019846916,0.015016314573585987,-0.060193441808223724,0.22715260088443756,0.24757911264896393,0.01272547710686922,-0.09234493225812912,-0.06403935700654984,0.3249681293964386,0.05156047269701958,-0.1982303112745285,0.17453445494174957,-0.17885461449623108,0.08200379461050034,-0.16348713636398315,0.13769255578517914,0.047580085694789886,-0.17058026790618896,-0.2232038378715515,0.09515107423067093,-0.21706220507621765,-0.025246473029255867,-0.02900465577840805,-0.4643305838108063,0.1975029855966568,0.278372585773468,-0.15690892934799194,0.30045488476753235,-0.0856657475233078,0.2235129177570343,-0.08608729392290115,0.026790883392095566,0.16070984303951263,0.24364477396011353,0.1121913492679596,0.32734107971191406,-0.13230283558368683,-0.001943204551935196,-0.03938588127493858,-0.029336359351873398,-0.10766861587762833,-0.09492611140012741,-0.0006122534396126866,-0.02702581137418747,0.14305517077445984,0.09638208150863647,-0.13862530887126923,0.11143113672733307,-0.07289096713066101,-0.06993424892425537,0.13710351288318634,-0.10571695119142532,0.16674809157848358,-0.028907041996717453,-0.032429903745651245,0.005803493782877922,-0.13911697268486023,-0.07140025496482849,-0.1652975231409073,-0.05207633972167969,-0.005821221508085728,0.16274061799049377,0.14749974012374878,0.023345623165369034,-0.04389427602291107,-0.18728363513946533,0.09463296085596085,-0.046318598091602325,0.109072744846344,-0.03901967778801918,0.18237115442752838,0.26493367552757263,0.14533960819244385,-0.06964266300201416,-0.031957827508449554,-0.216176837682724,0.05036568641662598,-0.0014181210426613688,0.12897850573062897,-0.10006064921617508,0.01254027895629406,0.06729468703269958,0.28151169419288635,-0.023882795125246048,-0.1426134705543518,0.197969451546669,0.15935270488262177,-0.18671342730522156,-0.19407470524311066,-0.15124624967575073,0.12113483995199203,-0.2595120966434479,0.10529807955026627,-0.01019795797765255,-0.22139930725097656,-0.25589513778686523,-0.31117135286331177,-0.029816364869475365,-0.1251092255115509,-0.3545874059200287,-0.05820348858833313,-0.01020172331482172,-0.2322230488061905,0.07817130535840988,-0.24373744428157806,-0.0004640823171939701,-0.0023210642393678427,-0.05827326327562332,0.4605481028556824,0.10882735252380371,-0.06550078094005585,-0.2514578402042389,-0.0282824095338583,-0.04525831714272499,0.13672497868537903,0.1030048057436943,0.19418936967849731,0.07633139193058014,0.22419334948062897,0.13247892260551453,-0.22614127397537231,0.08941986411809921,-0.2579442262649536,-0.20176288485527039,-0.1646256148815155,0.05721113458275795,0.09926392883062363,0.1522037833929062,0.05277510732412338,0.20510119199752808,0.11934562772512436,0.07638547569513321,0.040306221693754196,0.13086338341236115,-0.1189400926232338,0.258505642414093,-0.3871523439884186,0.01092896144837141,-0.09535560011863708,-0.24462997913360596,0.17412562668323517,-0.13064782321453094,0.20870646834373474,-0.36311620473861694,-0.17362020909786224,0.0234904233366251,0.059021808207035065,0.07429027557373047,0.2992666959762573,-0.19398365914821625,0.038442134857177734,0.17309065163135529,0.03198762610554695,0.2737624943256378,0.05163931846618652,0.031709566712379456,-0.07002188265323639,0.033241525292396545,0.00643697427585721,0.17940674722194672,-0.26138049364089966,-0.044682182371616364,-0.35746923089027405,-0.16960294544696808,-0.0881223976612091,-0.05805990844964981,-0.05158141255378723,-0.1453404724597931,0.0065034376457333565,-0.05790119990706444,0.015815243124961853,0.19571147859096527,-0.00600072368979454,0.12295213341712952,0.03859999030828476,-0.004184290301054716,-0.17836786806583405,-0.023952633142471313,-0.14078737795352936,-0.0061012678779661655,0.06224256008863449,-0.24449706077575684,0.29396459460258484,0.23229221999645233,0.13380050659179688,0.3071152865886688,0.009685494937002659,0.10949519276618958,0.3738100826740265,0.03053903579711914,0.0841568112373352,-0.11835977435112,-0.1364516168832779,-0.04085201025009155,-0.1356712281703949,0.37280815839767456,-0.09223384410142899,-0.18894189596176147,0.17254963517189026,0.07339498400688171,0.3663392663002014,-0.22330889105796814,-0.022580130025744438,-0.13138048350811005,-0.41959086060523987,-0.10206775367259979,-0.11223719269037247,0.18823620676994324,0.0363832451403141,0.33802875876426697,0.10530555993318558,-0.1390651911497116,0.285553514957428,-0.10001954436302185,-0.0946585088968277,0.2513706684112549,0.22167477011680603,0.30085182189941406,0.811738133430481,-0.2523098289966583,-0.04176866263151169,0.052707478404045105,-0.035598136484622955,0.4184901714324951,0.1758120208978653,0.1411878764629364,-0.160867378115654,0.09933710098266602,-0.1283721774816513,-0.14185208082199097,-0.007597356103360653,-0.2638795077800751,0.087319515645504,0.09584106504917145,-0.04327370971441269,-0.19615064561367035,0.1592658907175064,0.021580394357442856,-0.04664573445916176,-0.17077860236167908,-0.22324104607105255,0.9001978039741516,0.3446617126464844,-0.399066686630249,0.1713392734527588,-0.28762388229370117,0.09180358797311783,0.08531317114830017,-0.7393797039985657,0.9430204033851624,0.5713545680046082,-0.03338656201958656,-0.29156675934791565,0.15386907756328583,-0.6653621792793274,0.2770393192768097,-0.2830367386341095,-0.06449923664331436,-0.2171318084001541,0.34603217244148254,-0.06875758618116379,0.22879846394062042,0.09101346135139465,-0.044639211148023605,0.054148539900779724,0.06112224981188774,0.24223341047763824,-0.27070000767707825,-0.2803969085216522,-0.07629834115505219,-0.11500590294599533,0.25659090280532837,-0.15704068541526794,-0.07541786879301071,0.13129475712776184,0.07843931764364243,0.3032747805118561,-0.05767378583550453,-0.4513375759124756,-0.29218459129333496,0.19031526148319244,-0.1273290514945984,-0.2789880633354187,0.1848902553319931,0.29213136434555054,-0.07927337288856506,0.1023050844669342,0.057732559740543365,-0.4491930902004242,-0.009835191071033478,-0.3082304000854492,0.26379358768463135,-0.11224570870399475,-0.0520077683031559,-0.06060584634542465,-0.0570366233587265,0.07679907232522964,-0.251041978597641,0.2668852210044861,0.1762075275182724,-0.34755370020866394,0.07923226058483124,0.0184211153537035,0.28748273849487305,-0.12020110338926315,0.2587772309780121,0.06247827783226967,-0.19930626451969147,0.12690520286560059,-0.2958475649356842,0.33988621830940247,0.21322987973690033,-0.02466454543173313,0.20857839286327362,0.12878446280956268,0.02674088440835476,0.061676058918237686,0.012623765505850315,-0.2536206841468811,-0.10560792684555054,-0.17868144810199738,0.09929093718528748,-0.28007450699806213,0.5380045771598816,-0.394165575504303,0.1242971420288086,0.09650221467018127,-0.1529911607503891,0.08722184598445892,-0.4783158302307129,-0.035107653588056564,-0.0760267823934555,-0.25327712297439575,0.09812537580728531,-0.19808092713356018,-0.6165865659713745,0.11554768681526184,0.3130583167076111,-0.0023947455920279026,-0.08712697774171829,-0.3018779456615448,0.39831724762916565,0.3317326605319977,-0.33076608180999756,-0.022581810131669044,0.27333658933639526,0.24857133626937866,0.02237406000494957,0.22444599866867065,0.20052756369113922,0.08283791691064835,-0.23675039410591125,0.18499350547790527,-0.1500295102596283,-0.016858715564012527,0.2823260724544525,-0.01812136545777321,0.03902916610240936,-0.007508954964578152,-0.2717796862125397,0.2608521580696106,0.16532601416110992,-0.2127794623374939,0.2826351225376129,0.224539116024971,0.19012229144573212,-0.0017424925463274121,0.15246528387069702,0.2763986587524414,-0.26016420125961304,-0.18927015364170074,0.20737013220787048,-0.2020999938249588,0.0794062539935112,-0.1555594950914383,-0.2160673290491104,0.19716623425483704,0.0318395234644413,0.04842443764209747,0.15148410201072693,0.25285694003105164,0.13833686709403992,-0.04929754510521889,-0.379469096660614,0.12636783719062805,-0.014443482272326946,0.17740313708782196,0.17264476418495178,-0.06953686475753784,-0.24631257355213165,0.054859161376953125,-0.5573090314865112,0.27996718883514404,-0.1206517219543457,-0.10817939043045044,0.0198714230209589,0.05342474207282066,-0.1091655045747757,-0.1635926067829132,0.358108252286911,-0.022743714973330498,-0.24066762626171112,0.22843606770038605,0.00430992292240262,0.23510614037513733,-0.08374444395303726,-0.368651807308197,0.2933758497238159,-0.15975366532802582,0.15119679272174835,-0.002300974214449525,-0.14707309007644653,-0.07459431141614914,0.40044617652893066,-0.05605233833193779,0.31583693623542786,-0.2003694623708725,-0.27973684668540955,-0.3953700363636017,0.4551382064819336,-0.339200884103775,0.13088497519493103,-0.09382803738117218,0.14398911595344543,0.14450351893901825,-0.43991586565971375,0.03244047611951828,0.05443880334496498,-0.274772584438324,0.18050245940685272,0.25922566652297974,0.42752471566200256,-0.1649114489555359,-0.12015258520841599,0.09335498511791229,-0.043855033814907074,0.13887466490268707,0.25027623772621155,0.15806332230567932,-0.096036396920681,-0.38565465807914734,-0.13503031432628632,0.4929696321487427,-0.5393697023391724,-0.5814616680145264,0.02821969799697399,0.01533860806375742,-0.07954051345586777,-0.4203770160675049,-0.42061832547187805,-0.033505745232105255,0.18526971340179443,0.1446051299571991,-0.23568195104599,-0.026610787957906723,0.09428765624761581,-0.20627464354038239,-0.07018979638814926,-0.10577232390642166,-0.1558273732662201,-0.13695718348026276,0.0655445083975792,-0.33773183822631836,-0.310116171836853,0.09533737599849701,-0.19036632776260376,-0.1437574028968811,0.0761878713965416,-0.1799110770225525,0.1353200376033783,-0.03387010470032692,-0.05449627712368965,-0.06190475821495056,0.03255533054471016,-0.1386609971523285,-0.01925317570567131,0.1266060620546341,-0.1764739751815796,-0.06199644133448601,0.18317930400371552,0.45209628343582153,-0.05610384792089462,0.14931273460388184,-0.2477576732635498,0.004223648924380541,0.03628992289304733,-0.2670072019100189,0.3924030661582947,-0.10335725545883179,0.16997291147708893,0.5575101971626282,-0.26538267731666565,0.05491546913981438,0.23743292689323425,-0.24711370468139648,-0.20214180648326874,-0.11682519316673279,-0.04187431558966637,-0.20117147266864777,0.05383864417672157,-0.3171151280403137,-0.08605287224054337,-0.2180909812450409,-0.06720326095819473,0.2516985833644867,0.1871771365404129,0.07848406583070755,-0.1982523500919342,-0.16303391754627228,-0.10062258690595627,-0.07453949004411697,0.06830111145973206,-0.07394563406705856,-0.03266829252243042,0.21963214874267578,-0.43130144476890564,0.08630672097206116,-0.08411058783531189,-0.09946881979703903,-0.6031217575073242,0.25429263710975647,-0.01819809339940548,0.33051633834838867,0.3349049985408783,-0.08988695591688156,0.16590195894241333,-0.05647090822458267,0.07892382889986038,-0.03228527680039406,0.24439412355422974,0.11051134765148163,0.2693094313144684,-0.06547166407108307,0.08920016139745712,0.11015129089355469,-0.1875775009393692,-0.1713356375694275,-0.03726446256041527,0.4682192802429199,-0.24307966232299805,-0.3435690402984619,-0.2942627966403961,0.2905372977256775,0.24878670275211334,-0.17764030396938324,0.08477041870355606,-0.04518944025039673,-0.23624588549137115,-0.06706015765666962,0.5088462829589844,-0.2831474244594574,-0.006646871101111174,0.12828755378723145,-0.07182961702346802,-0.07480678707361221,-0.06516361981630325,0.024463901296257973,-0.052159566432237625,-0.05120668187737465,-0.13362163305282593,-0.08609145879745483,-0.3126370906829834,-0.11967863887548447,-0.08059456944465637,-0.4066680371761322,0.041759803891181946,0.040918055921792984,-0.037020839750766754,-0.3889378011226654,0.025558825582265854,-0.4039985239505768,-0.317247599363327,-0.01605752483010292,0.18193314969539642,0.22285833954811096,0.07562680542469025,0.20882748067378998,-0.18698181211948395,0.16529163718223572,-0.07449013739824295,0.14812064170837402,0.07390626519918442,-0.008508022874593735,0.11591688543558121,-0.12473008036613464,0.15869249403476715,-0.0882909893989563,0.10290419310331345,-0.01649215817451477,0.20859475433826447,-0.15214592218399048,-0.19279271364212036,0.10448797047138214,-0.11287976801395416,0.15559186041355133,0.20857897400856018,0.11249825358390808,-0.06658957898616791,0.1950138956308365,-0.039559826254844666,0.2140507698059082,-0.027041014283895493,-0.003612506203353405,-0.013777229934930801,-0.12349000573158264,-0.01865440420806408,0.019747888669371605,0.13795335590839386,0.08758613467216492,-0.023908602073788643,-0.42416438460350037,-0.13664013147354126,-0.19491568207740784,-0.18848267197608948,-0.17434288561344147,0.1191355288028717,0.09523867070674896,-0.3122641444206238,0.021605970337986946,0.19727115333080292,0.11961803585290909,0.14063353836536407,-0.18322841823101044,-0.21273568272590637,-0.2302674949169159,0.19130191206932068,0.11185923963785172,0.10937978327274323,-0.3358933627605438,-0.097774937748909,0.013055214658379555,-0.11141873151063919,-0.21946021914482117,-0.042264845222234726,0.2760193645954132,0.10385291278362274,-0.17258115112781525,-0.29487892985343933,0.06489604711532593,-0.17142698168754578,0.1264907866716385,0.11081960797309875,0.15880247950553894,-0.34931761026382446,-0.026119278743863106,0.03732617571949959,-0.2547706961631775,-0.04160990193486214,0.055844057351350784,-0.08071814477443695,-0.07028406858444214,-0.10710408538579941,0.2606087923049927,0.07701169699430466,0.07913091033697128,-0.4654942452907562,-0.13915187120437622,-0.25280147790908813,0.10128702968358994,-0.07644251734018326,-0.028867587447166443,-0.1087946891784668,0.06560423225164413,0.08085700869560242,-0.30627796053886414,0.214048832654953,-0.1837673783302307,-0.018013089895248413,-0.22363492846488953,-0.15678530931472778,0.12363296002149582,0.0019856439903378487,0.023262986913323402,-0.009650200605392456,-0.0016618554946035147,0.10266362130641937,0.061166997998952866,0.04965177923440933,0.08713454753160477,-0.07021506875753403,0.005655641667544842,0.11739985644817352,-0.06535902619361877,-0.015914078801870346,0.23872585594654083,-0.19273784756660461,-0.2840282917022705,-0.2970831096172333,0.016367610543966293,0.019540371373295784,0.04359754920005798,-0.040669023990631104,0.04198789224028587,-0.3419373035430908,0.2563641369342804,0.06987424939870834,-0.06383387744426727,0.007778614293783903,-0.0563429594039917,-0.09569286555051804,0.17663386464118958,0.12165334820747375,0.407063752412796,-0.05604395270347595,0.14142069220542908,0.08924492448568344,0.16746044158935547,0.0697399452328682,0.17588698863983154,0.018805494531989098,0.04197440296411514,0.26856595277786255,-0.17506110668182373,-0.016307508572936058,0.17714430391788483,-0.07705214619636536,-0.05818198248744011,-0.08766814321279526,0.02707892656326294,0.21622736752033234,0.14368560910224915,-0.2105456441640854,0.035252008587121964,-0.10500039160251617,0.2342655062675476,-0.10169424116611481,0.031433455646038055,-0.0923471748828888,0.18913793563842773,0.18390917778015137,-0.1401502639055252,0.07703865319490433,0.038205429911613464,-0.33425015211105347,0.1316809207201004,0.26615917682647705,0.13723547756671906,-0.0574403777718544,-0.08346894383430481,0.1643388271331787,0.16243548691272736,-0.07556866854429245,0.14568284153938293,-0.054665859788656235,0.16373401880264282,-0.2526858150959015,-0.0547083243727684,0.02551649697124958,0.02676643617451191,-0.01771499402821064,-0.055069856345653534,-0.105838343501091,-0.025582022964954376,0.01393019687384367,-0.2720332741737366,-0.10735096037387848,0.055143412202596664,-0.4972574710845947,-0.23369693756103516,-0.19792689383029938,0.009012991562485695,-0.24894796311855316,-0.4419698119163513,0.15687492489814758,0.09440133720636368,0.09007667750120163,-0.0857340544462204,-0.029432334005832672,-0.2081308215856552,-0.1603650599718094,-0.09442118555307388,-0.09657417982816696,-0.00012706861889455467,0.035397689789533615,0.02683667652308941,0.29413318634033203,0.06205984577536583,0.013503656722605228,-0.08728749305009842,-0.10579128563404083,-0.1192987710237503,0.04890846088528633,-0.3600173592567444,-0.1612112671136856,0.35780423879623413,-0.13112156093120575,0.021068401634693146,0.12450682371854782,0.21002858877182007,-0.04947447404265404,-0.025345414876937866,-0.12068245559930801,-0.03313756361603737,0.014819823205471039,0.08971776068210602,0.13112877309322357,-0.17396460473537445,-0.17035526037216187,-0.08581653982400894,-0.20180033147335052,0.3238276541233063,-0.008808559738099575,0.01068620290607214,0.16972577571868896,0.1882627159357071,-0.18377238512039185,-0.2110622376203537,-0.0936737209558487,-0.1060493215918541,-0.13730719685554504,0.055935706943273544,-0.19074538350105286,0.22633610665798187,0.04522162303328514,-0.022670207545161247,0.03197970986366272,-0.04134335368871689,0.07471775263547897,0.0545034259557724,0.10369787365198135,-0.06718087941408157,0.16482336819171906,0.2787308394908905,0.07676035165786743,0.16348157823085785,-0.2701588273048401,-0.13452264666557312,0.012533227913081646,-0.03670981153845787,0.30851104855537415,-0.25791412591934204,-0.2813222110271454,0.4659353494644165,-0.05508478358387947,0.034789055585861206,-0.06482499092817307,-0.44797009229660034,0.20474417507648468,0.4036608338356018,-0.2838857173919678,0.10682139545679092,0.012587053701281548,-0.07891800254583359,0.037544336169958115,0.04551497846841812,0.15448181331157684,0.08175624161958694,0.11364126950502396,-0.09097202122211456,-0.3138992190361023,0.058762144297361374,0.2909906804561615,0.0345214419066906,0.0355212464928627,0.047898948192596436,0.10719539225101471,-0.14260804653167725,0.11276932060718536,0.21686068177223206,-0.1167139858007431,-0.034764859825372696,-0.035509467124938965,0.0816841647028923,0.005797330290079117,-0.2243320345878601,0.056096941232681274,0.09108799695968628,0.15811538696289062,0.10852721333503723,-0.08444605767726898,-0.08636050671339035,-0.007659392897039652,-0.2782290577888489,-0.04371100664138794,0.07222433388233185,-0.3503769636154175,-0.05933714285492897,-0.19130131602287292,0.12059702724218369,-0.1319722980260849,-0.6244831085205078,0.03715231642127037,-0.06629013270139694,-0.008497189730405807,0.002633271273225546,0.16136234998703003,-0.0900898203253746,-0.11244858056306839,-0.2066732794046402,-0.11877092719078064,-0.133209690451622,-0.13893677294254303,0.10912612080574036,-0.06838849931955338,0.05185477435588837,-0.08044758439064026,-0.056853361427783966,-0.17361538112163544,0.20630136132240295,-0.05563705414533615,-0.24122951924800873,0.2881227731704712,0.10214950144290924,-0.006483195815235376,-0.07487107068300247,0.17532464861869812,0.24351614713668823,0.035590361803770065,-0.008522888645529747,-0.2315226048231125,0.13017618656158447,0.06718995422124863,0.2818028926849365,-0.06912614405155182,0.06985590606927872,-0.1516859084367752,0.20577241480350494,-0.11958859115839005,-0.1520121991634369,0.20416608452796936,0.06938285380601883,0.018000656738877296,-0.19481632113456726,-0.12749958038330078,-0.09792439639568329,-0.06375261396169662,-0.0380026139318943,0.2799549996852875,0.07090932130813599,-0.08206918835639954,-0.1806492805480957,0.023334652185440063,-0.06049380451440811,0.050460249185562134,-0.10855845361948013,-0.18008023500442505,-0.057237040251493454,0.0010209608590230346,0.15750671923160553,0.1640533059835434,-0.23205530643463135,-0.039483483880758286,-0.12139928340911865,0.1881098747253418,0.22338367998600006,0.17496506869792938,-0.3130713999271393,0.1645677089691162,-0.02626686356961727,-0.09063185006380081,-0.19723062217235565,0.007438137196004391,0.15278446674346924,-0.02850322052836418,0.1429661512374878,0.1671740561723709,0.07918998599052429,0.03543894737958908,-0.03858671337366104,0.4153610169887543,0.14244765043258667,-0.20790669322013855,-0.06106807664036751,-0.042706701904535294,0.022934192791581154,0.2404424101114273,0.43471482396125793,-0.14121130108833313,0.24439825117588043,-0.47419145703315735,-0.12117920815944672,0.05704563483595848,0.004510762635618448,-0.33547115325927734,-0.257570743560791,-0.4652034342288971,-0.2889344096183777,-0.3151547312736511,-0.0025516878813505173,0.11591675132513046,0.25831055641174316,0.2875927984714508,-0.3226495087146759,-0.2989649474620819,0.08004501461982727,-0.18218651413917542,0.1649615615606308,-0.036257870495319366,0.09403292089700699,-0.02696755900979042,0.8895477652549744,-0.02596963755786419,0.2694878578186035,0.03434756025671959,-0.16220052540302277,0.13894763588905334,0.17215698957443237,-0.16408181190490723,-0.3929925858974457,0.28212475776672363,0.04811955988407135,0.035734519362449646,-0.021310389041900635,0.08464671671390533,0.11371108144521713,-0.09441325813531876,-0.11056999117136002,0.17935699224472046,-0.16503360867500305,0.04300391301512718,0.11480876803398132,-0.08696870505809784,-0.016980063170194626,0.016590388491749763,0.04042646288871765,0.08095493912696838,0.37115126848220825,0.027912789955735207,-0.15762783586978912,-0.05605829879641533,-0.3288780748844147,-0.3650643825531006,-0.2390526384115219,0.14850907027721405,0.13966549932956696,0.04475898668169975,0.157401442527771,-0.03546302765607834,-0.19317083060741425,-0.15635310113430023,0.06218377873301506,0.06667088717222214,-0.10950981080532074,-0.02255455031991005,0.02059563435614109,0.12094912678003311,0.050731122493743896,0.1786927878856659,0.11428511887788773,-0.0682472512125969,0.000987983075901866,-0.0006876947009004653,0.12148328870534897,0.3034202456474304,0.3796733617782593,0.2600465416908264,0.026112137362360954,0.0028264787979424,0.05636560544371605,-0.14494484663009644,0.10299858450889587,0.26932457089424133,-0.025817139074206352,-0.20096924901008606,-0.2890157401561737,-0.1004287376999855,-0.050984565168619156,0.23808158934116364,0.11330049484968185,0.25268828868865967,-0.13540931046009064,0.06682777404785156,0.10262870788574219,0.12802430987358093,-0.16109278798103333,-0.11718341708183289,0.10294050723314285,-0.22224904596805573,-0.4419156312942505,0.30499979853630066,0.10724031925201416,-0.17363105714321136,0.0066409423016011715,0.11447199434041977,0.010968076065182686,-0.2071651965379715,0.060357172042131424,-0.025269078090786934,0.3211469352245331,0.160365492105484,0.10733720660209656,-0.006008291617035866,-0.28704097867012024,0.05848987400531769,0.21492797136306763,0.20053566992282867,-0.10731019079685211,0.11625591665506363,-0.04302848502993584,-0.22017279267311096,0.1571589857339859,-0.019119007512927055,0.18860562145709991,0.0025491025298833847,0.2783958315849304,-0.003222237341105938,-0.07584748417139053,-0.16837310791015625,0.08620001375675201,-0.03570039942860603,-0.04127645865082741,-0.10094677656888962,0.26760074496269226,-0.10663871467113495,-0.10228575021028519,0.10421429574489594,0.014741632156074047,0.07432658225297928,-0.23743055760860443,0.16100353002548218,-0.04799770563840866,-0.3421842157840729,-0.19582156836986542,-0.09151342511177063,0.18213294446468353,-0.08349819481372833,-0.020206963643431664,-0.15418213605880737,0.19184653460979462,-0.15824472904205322,0.03832396864891052,-0.07574119418859482,0.15518179535865784,-0.32597529888153076,-0.08623160421848297,0.02415275387465954,-0.20904050767421722,-0.062401510775089264,0.05317125841975212,-0.3283773362636566,-0.21469636261463165,0.05039607733488083,0.2262495458126068,-0.04566651210188866,0.03275405243039131,-0.4415774345397949,-0.1948384940624237,-0.18978984653949738,0.3295772671699524,0.03972610458731651,-0.01435101218521595,-0.08975789695978165,0.2526256740093231,0.10871493816375732,-0.1783512532711029,0.07293820381164551,-0.07229413837194443,-0.07979433238506317,-0.04808805137872696,-0.08693227916955948,0.1298058182001114,0.3010399639606476,-0.15545493364334106,0.047131337225437164,-0.03847302868962288,0.24173326790332794,-0.026255303993821144,0.1474374234676361,-0.03300396725535393,-0.10967253893613815,0.4267630875110626,-0.11164375394582748,0.1652076095342636,0.6688273549079895,-0.1799214631319046,0.056271281093358994,-0.13396963477134705,-0.43730083107948303,0.05838800594210625,-0.3153558373451233,0.12278629839420319,0.11134298890829086,-0.24590171873569489,0.23247328400611877,-0.1635015308856964,-0.013543474487960339,0.4343120753765106,0.037507880479097366,-0.0036764517426490784,-0.13210976123809814,0.11412475258111954,0.20547106862068176,0.15810558199882507,-0.048026420176029205,0.382610559463501,-0.0597829595208168,0.010114341042935848,0.1441364586353302,-0.03935420885682106,-0.10259898751974106,-0.12564359605312347,0.006938691716641188,0.0605052150785923,-0.26523125171661377,-0.2171200066804886,0.3147093653678894,0.18911989033222198,0.16908979415893555,0.008826881647109985,-0.06721664220094681,0.21410121023654938,-0.0005563961458392441,-0.1688329428434372,-0.2816249132156372,0.0548512227833271,-0.058547940105199814,-0.07794377952814102,0.1479862630367279,-0.14036190509796143,0.023405207321047783,0.01747041754424572,-0.09584787487983704,0.010756848379969597,0.12410546094179153,0.056298017501831055,0.02433171309530735,-0.03011051006615162,0.12377139925956726,-0.22635826468467712,0.15402893722057343,0.1233673021197319,0.034299496561288834,0.05871691554784775,0.059791866689920425,-0.26567360758781433,0.2577240765094757,-0.09372644871473312,0.212856262922287,-0.030347449705004692,-0.20356954634189606,-0.18409886956214905,0.08311546593904495,0.0794292688369751,0.02500443533062935,-0.22041313350200653,-0.16927005350589752,0.1682823896408081,-0.06629577279090881,-0.07230644673109055,-0.03545420989394188,0.024448851123452187,-0.1448211818933487,0.12219192832708359,0.05941425636410713,0.025866160169243813,0.37770894169807434,-0.007230196613818407,-0.12554508447647095,0.05462858825922012,0.28752416372299194,-0.1813754290342331,0.10022349655628204,0.004594243597239256,-0.14680488407611847,-0.0547170415520668,-0.2531377673149109,-0.10580229014158249,-0.035688892006874084,0.11851691454648972,-0.12799188494682312,0.021329214796423912,0.26686111092567444,0.0964130237698555,-0.04971872642636299,-0.20760542154312134,0.12528352439403534,-0.027482595294713974,-0.23792968690395355,-0.1680544912815094,-0.04424959048628807,-0.027676360681653023,0.01533809769898653,0.030875053256750107,-0.08484824746847153,-0.1547231823205948,-0.17783981561660767,0.24467919766902924,-0.08713854849338531,0.10671057552099228,-0.06448537856340408,-0.13193798065185547,-0.12326143682003021,0.012935548089444637,0.03242819011211395,-0.05935901403427124,0.30981191992759705,-0.03508739173412323,0.11745156347751617,0.017401499673724174,0.2740626335144043,0.42948752641677856,-0.1309291124343872,-0.20629975199699402,-0.15206243097782135,0.21051327884197235,0.5898954272270203,0.04716944321990013,0.10135594755411148,-0.10017170757055283,0.35503318905830383,0.22468990087509155,-0.05635175108909607,0.10998077690601349,0.15010665357112885,0.1306103765964508,0.11619541049003601,-0.029780840501189232,0.07405432313680649,0.12208259105682373,-0.11261598765850067,0.05683411285281181,0.8859435319900513,0.15675018727779388,0.5996434688568115,-1.0318975448608398,-0.33297985792160034,-0.012973101809620857,0.20405270159244537,-0.19147688150405884,0.3273605406284332,0.11415179073810577,-0.8400055766105652,0.4283754527568817,0.022768594324588776,-0.8578876256942749,0.15301649272441864,-0.2614096999168396,-0.2962208390235901,-0.11506056040525436,0.052481718361377716,-0.23709715902805328,0.1904575675725937,0.4643394649028778,0.10186050087213516,-0.5186681747436523,-0.07648781687021255,-0.07968844473361969,-0.3357575833797455,-0.04780592769384384,-0.12364616990089417,-0.22931960225105286,0.4084627628326416,-0.30113497376441956,-0.3886621594429016,-0.14619728922843933,-0.14130157232284546,-0.1200968325138092,-0.03879253938794136,0.4076930582523346,-0.1870039701461792,-0.17703877389431,0.009139752946794033,-0.20479485392570496,-0.19310928881168365,0.04526069015264511,-0.046407271176576614,0.04498489946126938,0.25717875361442566,0.1140679195523262,-0.2153150886297226,0.15798328816890717,-0.40947210788726807,-0.264043390750885,-0.0635003000497818,-0.1375175416469574,-0.2753940224647522,0.11746607720851898,0.29142671823501587,-0.17859840393066406,-0.10162906348705292,-0.2963707149028778,-0.19944874942302704,0.006011839024722576,0.06282851099967957,0.2977164089679718,-0.08924883604049683,-0.04364633932709694,0.09807223826646805,0.3289198875427246,0.22651317715644836,0.1861986219882965,0.14312675595283508,-0.008886507712304592,-0.34854960441589355,-0.04483094438910484,0.05312401428818703,-0.1562243402004242,0.4381020665168762,0.2043350338935852,-0.05790321156382561,-0.19790683686733246,0.15584422647953033,-0.021784914657473564,-0.19549332559108734,0.020357634872198105,0.414353609085083,-0.2384576052427292,-0.07751486450433731,-0.2960789203643799,0.15955470502376556,0.30100908875465393,-0.041022785007953644,0.02869144268333912,-0.2680281698703766,0.0827302560210228,-0.27174612879753113,-0.3605008125305176,-0.25975915789604187,0.17004738748073578,0.2988269031047821,0.1610792577266693,-0.10809199512004852,0.14662158489227295,-0.1282549649477005,-0.014776535332202911,0.035974521189928055,0.35066670179367065,-0.08109717071056366,0.21222974359989166,0.1486527919769287,0.25844550132751465,-0.1856423318386078,0.05594346672296524,-0.058176230639219284,-0.25136882066726685,0.01902170479297638,-0.23123161494731903,-0.10278269648551941,-0.14555248618125916,0.11084171384572983,-0.1446293294429779,-0.36144036054611206,0.05099455639719963,-0.19791986048221588,-0.06996969133615494,0.15099453926086426,-0.04599614441394806,0.25740358233451843,0.08979402482509613,-0.19047532975673676,0.1929033100605011,-0.37944793701171875,0.07055896520614624,0.45313820242881775,-0.1726885288953781,-0.2505578398704529,0.18399742245674133,0.18398138880729675,0.12270479649305344,-0.05247284844517708,-0.10546979308128357,-0.273233026266098,0.06498479843139648,0.2917722463607788,-0.06670302152633667,-0.28969016671180725,0.42929941415786743,-0.0011091053020209074,0.008568158373236656,0.13302478194236755,-0.02419213205575943,-0.2859966456890106,-0.29094165563583374,-0.08248741179704666,-0.07438603043556213,-0.08004657179117203,-0.25675082206726074,0.21895979344844818,0.21163490414619446,0.03852449730038643,0.22139866650104523,0.2691133916378021,-0.046965714544057846,0.34312522411346436,0.04773178696632385,-0.2740032970905304,0.11570048332214355,-0.07244154065847397,0.03451833501458168,-0.11000657081604004,-0.14525045454502106,0.39855799078941345,-0.16541847586631775,0.3391972482204437,-0.17948952317237854,0.09653659909963608,0.07533276826143265,-0.2487223893404007,0.23489104211330414,-0.45879116654396057,-0.1977696716785431,-0.16337940096855164,0.2289479672908783,0.0076294513419270515,-0.21929822862148285,0.3072332739830017,-0.1320333033800125,-0.12474888563156128,0.07837189733982086,-0.31983238458633423,-0.04146678373217583,0.1417890340089798,-0.07560954988002777,0.2526942491531372,-0.05460887402296066,-0.13321132957935333,-0.03391855210065842,0.22859090566635132,-0.21130631864070892,-0.12652356922626495,0.37414661049842834,-0.14258499443531036,0.16034869849681854,0.5831378102302551,-0.11799781769514084,-0.09605801850557327,0.16404588520526886,-0.22015325725078583,-0.18593601882457733,0.11824165284633636,0.3274572789669037,0.027886265888810158,0.2235560119152069,0.1654520481824875,0.18874189257621765,-0.25656136870384216,-0.14842858910560608,0.34191495180130005,0.40887829661369324,-0.35601240396499634,-0.5581052899360657,-0.3039267957210541,0.34383562207221985,0.043481405824422836,-0.17954424023628235,-0.11204210668802261,0.27269548177719116,-0.03422590345144272,0.1984105110168457,-0.06382156163454056,0.49547380208969116,-0.058988455682992935,-0.04796728864312172,-0.04548365995287895,0.13165108859539032,-0.031175673007965088,-0.1599205583333969,-0.30770763754844666,-0.15638071298599243,-0.0639541745185852,-0.09666968137025833,0.35398006439208984,-0.07083245366811752,0.3154408931732178,0.2983042597770691,-0.24186113476753235,-0.20381546020507812,0.2512974143028259,0.08254364132881165,-0.3026508688926697,0.07585407048463821,-0.1789710372686386,0.037523940205574036,0.27607932686805725,0.08236908912658691,-0.20842091739177704,0.20589323341846466,0.08177092671394348,0.04031413793563843,-0.19295653700828552,-0.4946930408477783,-0.14703935384750366,-0.6196475625038147,0.4719564914703369,-0.16314071416854858,-0.14903530478477478,0.16029508411884308,-0.24557818472385406,0.2590869665145874,-0.017745884135365486,0.10864248126745224,0.1026405319571495,0.3211362957954407,-0.2587875723838806,0.061332009732723236,0.09291073679924011,-0.017943209037184715,-0.1581801474094391,0.04871729761362076,0.07056106626987457,-0.06798060238361359,-0.09189288318157196,0.17243708670139313,0.13376110792160034,-0.05611586198210716,0.2168343961238861,0.033777061849832535,-0.09489753842353821,-0.1389351338148117,0.013307048939168453,0.008888552896678448,0.02730388753116131,-0.09127841889858246,-0.02204570360481739,-0.024250416085124016,-0.038131777197122574,0.07988939434289932,0.13640545308589935,-0.1303916722536087,0.058323267847299576,-0.036164503544569016,0.2748979926109314,0.342166543006897,-0.04952432960271835,0.08330987393856049,-0.012594631873071194,-0.00495805824175477,0.08828061819076538,-0.03338726982474327,-0.006180071271955967,0.3596280515193939,0.28708767890930176,-0.26371753215789795,0.12100136280059814,-0.015511276200413704,0.1723146140575409,-0.11238895356655121,-0.0921751856803894,0.0533641092479229,-0.053047966212034225,-0.23693832755088806,0.061251018196344376,0.10309017449617386,0.09802566468715668,0.03529955819249153,-0.14055638015270233,0.16573311388492584,0.2077653408050537,-0.046065110713243484,-0.3586221933364868,-0.03892778232693672,0.17418430745601654,-0.10264258831739426,0.05908293277025223,-0.14552997052669525,0.3644287586212158,-0.07017336040735245,-0.17192524671554565,0.11952457576990128,0.1297723799943924,0.07164546102285385,-0.13995827734470367,-0.07436826080083847,-0.107125423848629,-0.03548805043101311,0.02858995459973812,-0.01841861754655838,-0.04472637549042702,0.029414387419819832,0.20551735162734985,0.005090600810945034,0.34445708990097046,-0.24422763288021088,-0.14510710537433624,-0.03716933727264404,-0.041153308004140854,0.11468809843063354,0.25660640001296997,-0.16035763919353485,-0.05039581283926964,0.054463304579257965,-0.2438177466392517,-0.07200855761766434,0.11561892181634903,-0.19852186739444733,0.09607025235891342,-0.30973467230796814,-0.0793229416012764,-0.09415248036384583,0.25532272458076477,-0.20508402585983276,-0.08075428754091263,-0.15400348603725433,-0.06598019599914551,-0.22261884808540344,0.022016353905200958,0.12988953292369843,-0.20493189990520477,0.04377800226211548,0.1029791533946991,-0.13434626162052155,-0.4248979687690735,-0.11654677987098694,0.013517601415514946,0.3372029662132263,0.0013089821441099048,-0.19872580468654633,0.2245493233203888,0.020670829340815544,0.20230808854103088,0.36916059255599976,-0.12655913829803467,0.030157385393977165,-0.13019783794879913,0.07135115563869476,0.06085311621427536,0.16311043500900269,0.01593559794127941,-0.17527908086776733,-0.2714519500732422,0.01255879271775484,0.16203787922859192,0.6436092853546143,0.0037827659398317337,0.04869125783443451,-0.017811249941587448,-0.060785967856645584,0.11478026956319809,-0.13708597421646118,0.08230487257242203,0.19679628312587738,-0.15359099209308624,0.01692245900630951,-0.2650218904018402,0.05719805508852005,0.11491136252880096,0.1571980118751526,-0.32158589363098145,0.07214228063821793,0.09554649144411087,-0.042044710367918015,0.058579567819833755,0.044875871390104294,-0.05680156126618385,0.16090917587280273,0.1802418828010559,0.000005690842044714373,-0.09227484464645386,0.11422760039567947,-0.3000134527683258,-0.03240262717008591,-0.13444514572620392,0.002254541963338852,0.03013616055250168,-0.1910926103591919,0.1470000445842743,-0.05673389509320259,0.056674033403396606,-0.2153649926185608,0.09926794469356537,0.2713667154312134,-0.35225558280944824,0.2247752696275711,-0.07993490248918533,0.15413051843643188,0.05624629184603691,0.16094911098480225,0.025712259113788605,-0.09162208437919617,0.22536571323871613,0.2123498022556305,-0.019964998587965965,-0.11413337290287018,0.14129941165447235,0.22550033032894135,-0.04051217809319496,-0.2139447182416916,0.1138734295964241,0.10474540293216705,0.06141345575451851,-0.158749520778656,-0.12580734491348267,0.02085914835333824,0.0376410037279129,0.17354105412960052,-0.3315296769142151,0.07004649192094803,-0.0069834450259804726,-0.17789722979068756,-0.0029324123170226812,0.10203546285629272,-0.07054184377193451,-0.1451026201248169,0.1974056214094162,-0.17828497290611267,0.07276396453380585,0.15203478932380676,0.22166675329208374,0.16338379681110382,0.28729575872421265,0.2847035229206085,-0.10087160021066666,0.2546510100364685,0.09315187484025955,0.08776306360960007,0.05642922967672348,-0.2605903446674347,0.20318830013275146,-0.023118071258068085,-0.14183786511421204,-0.14882180094718933,0.08799906820058823,0.3361957371234894,-0.06076181307435036,-0.08949506282806396,0.03709118813276291,0.3964506685733795,0.3487427234649658,-0.41056278347969055,0.14117513597011566,0.03254099562764168,0.13678191602230072,0.10867747664451599,0.35784417390823364,0.0036496904212981462,0.0937524065375328,0.014039479196071625,-0.3326418101787567,0.033413976430892944,0.010461694560945034,-0.04698127508163452,0.012666912749409676,-0.10005773603916168,-0.5242895483970642,0.005630606319755316,-0.049398429691791534,0.035732220858335495,-0.1943567842245102,-0.11209201067686081,-0.1539381891489029,0.1475730687379837,-0.04403272271156311,0.025525923818349838,0.1625492125749588,-0.2481948882341385,0.08020150661468506,-0.17638272047042847,-0.012541563250124454,0.1394466906785965,-0.17009826004505157,0.22637920081615448,-0.27745962142944336,-0.08761914074420929,-0.07223929464817047,0.17297187447547913,0.0424371175467968,-0.09294317662715912,0.15662695467472076,-0.09749872982501984,0.06004392355680466,-0.11058203130960464,-0.004555468447506428,-0.043413303792476654,0.03142228722572327,0.04555139318108559,-0.3191767930984497,0.17507506906986237,0.1874261349439621,-0.1432429403066635,-0.11784340441226959,-0.019938476383686066,0.08685030788183212,0.1900937408208847,-0.1374637484550476,-0.16636410355567932,0.09623807668685913,-0.09319522976875305,0.21288268268108368,-0.20130197703838348,-0.01935790479183197,-0.06183498352766037,0.16209079325199127,-0.23850907385349274,0.17072851955890656,-0.06349289417266846,-0.0019237136002629995,-0.04872627928853035,-0.08450780808925629,-0.1311674267053604,-0.26798927783966064,0.08737187832593918,0.025567254051566124,-0.0048148371279239655,-0.14629077911376953,0.08338944613933563,0.1796022355556488,-0.2054910808801651,-0.35541945695877075,-0.0972149446606636,-0.07739433646202087,0.128786101937294,-0.021399052813649178,0.06721753627061844,0.15285591781139374,-0.026733476668596268,0.2972314655780792,-0.1061815470457077,0.02334897220134735,-0.14042332768440247,0.008048075251281261,0.1107296273112297,0.032123200595378876,0.21994899213314056,0.07269684225320816,0.159734845161438,0.07059066742658615,0.06166929751634598,0.1735026091337204,-0.20045487582683563,-0.15264403820037842,0.04810025542974472,-0.0515984483063221,-0.13759499788284302,0.19707293808460236,-0.1524556428194046,0.1411583572626114,-0.154484823346138,0.011155015788972378,0.03990349546074867,0.2561647295951843,-0.1135682612657547,-0.1515655219554901,-0.27190425992012024,-0.0331149585545063,0.28534916043281555,0.2840728163719177,0.05037807300686836,-0.04647566005587578,0.14071537554264069,-0.12545639276504517,-0.24204328656196594,-0.015430104918777943,-0.11908167600631714,-0.07457461208105087,0.17727430164813995,0.2395990788936615,0.04680981487035751,0.3179127871990204,-0.006794312037527561,-0.07265172898769379,0.19922851026058197,-0.11345598101615906,-0.05928490683436394,0.37980854511260986,0.08720728754997253,0.0001897618203656748,-0.23215466737747192,-0.1323486715555191,-0.13169221580028534,-0.03359204903244972,0.0025054144207388163,-0.27849942445755005,-0.3569549024105072,-0.011319025419652462,0.2691742479801178,0.18534578382968903,0.10086794942617416,-0.14822137355804443,-0.11472511291503906,-0.1054578348994255,-0.18467220664024353,-0.13641928136348724,0.09176953881978989,-0.0219283364713192,-0.13156700134277344,0.04647229239344597,0.08892674744129181,0.38916489481925964,0.0777696743607521,0.12290849536657333,0.32329344749450684,0.0262040663510561,-0.13850927352905273,-0.278114914894104,0.0465208999812603,0.25186195969581604,-0.006050291005522013,-0.024979766458272934,0.04677842929959297,-0.23684118688106537,-0.09783900529146194,-0.2521139681339264,0.23375903069972992,0.11628729850053787,-0.18367071449756622,0.09580262750387192,0.2162337750196457,0.2373901903629303,0.2948320806026459,0.2238251268863678,-0.03768332675099373,-0.087701216340065,-0.07730419188737869,-0.18393148481845856,-0.12687824666500092,-0.18539218604564667,0.07298555970191956,0.17541636526584625,-0.31506508588790894,0.32899415493011475,0.3597509264945984,0.24854640662670135,-0.18591438233852386,-0.17109806835651398,-0.25597333908081055,0.3206128180027008,-0.09792325645685196,-0.15837764739990234,0.12536320090293884,0.014123914763331413,0.24811917543411255,-0.5890631079673767,0.2250537872314453,-0.3140415847301483,0.2773377001285553,0.0005838582292199135,-0.12721876800060272,-0.07018615305423737,-0.22921529412269592,-0.026401320472359657,0.35155487060546875,-0.12986312806606293,-0.4972725808620453,0.3224024772644043,-0.1119530126452446,-0.013247179798781872,-0.2149212658405304,-0.24839092791080475,0.0708598867058754,-0.3932322859764099,0.24192401766777039,0.13951191306114197,0.020728256553411484,0.07967688143253326,-0.06247133016586304,0.13615721464157104,-0.2553885281085968,-0.18553860485553741,0.06874359399080276,-0.4047177731990814,0.13798676431179047,-0.009097426198422909,-0.29701265692710876,0.13988494873046875,-0.05623554810881615,-0.09070733934640884,-0.008475282229483128,0.11630702763795853,-0.3775807321071625,0.01103296410292387,0.03668798878788948,-0.11097243428230286,0.0891226977109909,0.0296047143638134,0.03626691922545433,-0.19254723191261292,-0.029338134452700615,-0.25720906257629395,0.02326461672782898,0.017161330208182335,0.0798003077507019,0.09407641738653183,0.07843482494354248,-0.3020654618740082,-0.050005849450826645,-0.07590431720018387,0.04158766195178032,0.23167355358600616,0.07590161263942719,0.03349059820175171,-0.04949526861310005,0.027469664812088013,-0.1112544983625412,-0.019235875457525253,0.14850732684135437,0.11305126547813416,-0.13272705674171448,-0.17458920180797577,0.018994636833667755,-0.16673792898654938,0.07894715666770935,0.11966651678085327,-0.010458873584866524,0.03670467063784599,0.06209942698478699,0.18109889328479767,-0.03167920559644699,-0.04888920485973358,-0.007859185338020325,-0.17525464296340942,-0.15304724872112274,-0.11855845898389816,-0.030022110790014267,0.17468558251857758,0.01684337668120861,0.2110622227191925,-0.0179489366710186,0.20092107355594635,0.06380507349967957,0.049202628433704376,0.08143899589776993,-0.057893119752407074,-0.10815728455781937,0.124587781727314,-0.13267846405506134,0.051600001752376556,-0.027313176542520523,0.2867752015590668,-0.22060512006282806,0.002287553157657385,0.03266128897666931,-0.028172364458441734,-0.15923601388931274,-0.006028707604855299,-0.32647812366485596,-0.08891253173351288,0.11275535821914673,0.3051186800003052,-0.10802643746137619,-0.15229807794094086,0.08068519085645676,0.16001684963703156,-0.09405126422643661,-0.48288583755493164,0.19192174077033997,-0.34073707461357117,0.0991944819688797,0.16273123025894165,-0.21940553188323975,0.023466220125555992,-0.03244956582784653,0.005937275476753712,-0.17854151129722595,-0.04815037548542023,0.21416357159614563,-0.25187215209007263,0.1119578406214714,0.02644750289618969,0.26841336488723755,0.004380915779620409,0.0361647754907608,0.045800529420375824,